{"learner":{"attributes":{},"gradient_booster":{"model":{"gbtree_model_param":{"num_trees":"16","size_leaf_vector":"0"},"tree_info":[0,0,0,0,0,0,0,0,0,0,0,0,0,0,0,0],"trees":[{"base_weights":[-5.55526113998894289e-09,-8.25334489345550537e-01,8.21384370326995850e-01,-1.26347377896308899e-01,-8.96638095378875732e-01,-1.97505950927734375e-03,8.93030583858489990e-01,-1.97505950927734375e-03,-5.11492729187011719e-01,-9.29189085960388184e-01,-5.11492729187011719e-01,-1.97505950927734375e-03,4.45527762174606323e-01,5.56266844272613525e-01,9.33638274669647217e-01,-5.11492729187011719e-01,-1.97505950927734375e-03,-9.99999940395355225e-01,-7.95671820640563965e-01,-7.20340907573699951e-01,-5.11492729187011719e-01,-1.97505950927734375e-03,2.84263223409652710e-01,4.45527762174606323e-01,-1.97505950927734375e-03,4.45527762174606323e-01,7.44952559471130371e-01,8.85616600513458252e-01,9.75107848644256592e-01,-2.56733894348144531e-01,-1.97505950927734375e-03,-9.99999821186065674e-01,-7.20340907573699951e-01,1.41144081950187683e-01,4.45527762174606323e-01,4.45527762174606323e-01,5.95240175724029541e-01,5.95240175724029541e-01,7.44952559471130371e-01,7.44952559471130371e-01,9.02976214885711670e-01,9.88682210445404053e-01,9.52680587768554688e-01],"default_left":[true,true,true,true,true,true,true,true,false,true,true,true,true,true,true,false,true,false,true,false,false,false,true,false,false,true,true,true,true,false,false,false,false,false,false,false,false,false,false,false,false,false,false],"id":0,"leaf_child_counts":[0,0,0,0,0,0,0,0,0,0,0,0,0,0,0,0,0,0,0,0,0,0,0,0,0,0,0,0,0,0,0,0,0,0,0,0,0,0,0,0,0,0,0],"left_children":[1,3,5,7,9,11,13,15,-1,17,19,21,23,25,27,-1,29,-1,31,-1,-1,-1,33,-1,-1,35,37,39,41,-1,-1,-1,-1,-1,-1,-1,-1,-1,-1,-1,-1,-1,-1],"loss_changes":[4.15434218750000000e+04,1.52346875000000000e+03,2.42998828125000000e+03,5.40955627441406250e+02,5.96462890625000000e+02,1.32422195434570312e+02,3.96949218750000000e+02,3.24173095703125000e+02,0.00000000000000000e+00,2.55283203125000000e+02,3.89840087890625000e+01,3.22814292907714844e+01,3.71788787841796875e+01,2.78456176757812500e+02,5.15839843750000000e+01,0.00000000000000000e+00,5.56728935241699219e+01,0.00000000000000000e+00,3.33915527343750000e+02,0.00000000000000000e+00,0.00000000000000000e+00,0.00000000000000000e+00,7.39989471435546875e+01,0.00000000000000000e+00,0.00000000000000000e+00,9.07690734863281250e+01,1.42515869140625000e+01,5.95039062500000000e+01,4.23144531250000000e+00,0.00000000000000000e+00,0.00000000000000000e+00,0.00000000000000000e+00,0.00000000000000000e+00,0.00000000000000000e+00,0.00000000000000000e+00,0.00000000000000000e+00,0.00000000000000000e+00,0.00000000000000000e+00,0.00000000000000000e+00,0.00000000000000000e+00,0.00000000000000000e+00,0.00000000000000000e+00,0.00000000000000000e+00],"parents":[2147483647,0,0,1,1,2,2,3,3,4,4,5,5,6,6,7,7,9,9,10,10,11,11,12,12,13,13,14,14,16,16,18,18,22,22,25,25,26,26,27,27,28,28],"right_children":[2,4,6,8,10,12,14,16,-1,18,20,22,24,26,28,-1,30,-1,32,-1,-1,-1,34,-1,-1,36,38,40,42,-1,-1,-1,-1,-1,-1,-1,-1,-1,-1,-1,-1,-1,-1],"split_conditions":[7.88038492202758789e-01,2.04499997198581696e-02,2.22499996423721313e-01,1.49339511990547180e-02,8.80499958992004395e-01,5.86839675903320312e-01,5.76499998569488525e-01,1.07500001788139343e-01,-2.04597100615501404e-01,5.33304154872894287e-01,3.85016024112701416e-01,1.57499998807907104e-01,5.87617039680480957e-01,7.35000014305114746e-01,9.02500033378601074e-01,-2.04597100615501404e-01,4.98782038688659668e-01,-3.99999976158142090e-01,5.24059593677520752e-01,-2.88136363029479980e-01,-2.04597100615501404e-01,-7.90023826994001865e-04,3.73675546875000000e+04,1.78211107850074768e-01,-7.90023826994001865e-04,8.96499991416931152e-01,1.41458945312500000e+04,5.58500051498413086e-01,6.02928958833217621e-02,-1.02693557739257812e-01,-7.90023826994001865e-04,-3.99999946355819702e-01,-2.88136363029479980e-01,5.64576350152492523e-02,1.78211107850074768e-01,1.78211107850074768e-01,2.38096073269844055e-01,2.38096073269844055e-01,2.97981023788452148e-01,2.97981023788452148e-01,3.61190497875213623e-01,3.95472884178161621e-01,3.81072252988815308e-01],"split_indices":[20,12,7,1,7,2,7,18,0,4,2,7,2,8,7,0,3,0,3,0,0,0,0,0,0,18,0,18,1,0,0,0,0,0,0,0,0,0,0,0,0,0,0],"sum_hessian":[6.12809960937500000e+04,3.05669980468750000e+04,3.07139980468750000e+04,2.82949975585937500e+03,2.77374980468750000e+04,1.68699987792968750e+03,2.90269980468750000e+04,2.05749975585937500e+03,7.71999938964843750e+02,2.70014980468750000e+04,7.35999938964843750e+02,1.40949987792968750e+03,2.77499969482421875e+02,3.12349975585937500e+03,2.59034980468750000e+04,4.27999969482421875e+02,1.62949987792968750e+03,1.76439980468750000e+04,9.35749902343750000e+03,2.42999984741210938e+02,4.92999969482421875e+02,1.01549993896484375e+03,3.93999969482421875e+02,2.43499984741210938e+02,3.39999961853027344e+01,1.32749987792968750e+03,1.79599987792968750e+03,1.20034990234375000e+04,1.38999990234375000e+04,1.25499992370605469e+02,1.50399987792968750e+03,4.94849951171875000e+03,4.40899951171875000e+03,1.06999992370605469e+02,2.86999969482421875e+02,5.61999938964843750e+02,7.65499938964843750e+02,2.84999980926513672e+01,1.76749987792968750e+03,1.09499992370605469e+02,1.18939990234375000e+04,8.65899902343750000e+03,5.24099951171875000e+03],"tree_param":{"num_deleted":"0","num_feature":"21","num_nodes":"43","size_leaf_vector":"0"}},{"base_weights":[6.75853399911829911e-08,-6.19763672351837158e-01,5.72748184204101562e-01,-7.30646193027496338e-01,-4.19263929128646851e-01,-2.35077440738677979e-02,6.68320477008819580e-01,-5.05575656890869141e-01,-7.54416525363922119e-01,-2.35077440738677979e-02,-5.49043178558349609e-01,-2.35077440738677979e-02,3.22406351566314697e-01,4.20391649007797241e-01,6.89757168292999268e-01,-7.58414506912231445e-01,-2.35077440738677979e-02,-7.52051770687103271e-01,-7.61932075023651123e-01,-2.35077440738677979e-02,-2.86275446414947510e-01,-7.52887010574340820e-01,-2.86275446414947510e-01,-2.35077440738677979e-02,1.49449303746223450e-01,1.49449303746223450e-01,3.22406351566314697e-01,3.22406351566314697e-01,5.55074393749237061e-01,6.39830291271209717e-01,7.31094002723693848e-01,-7.54914522171020508e-01,-7.70103633403778076e-01,-7.51667380332946777e-01,-7.60297179222106934e-01,-7.54516482353210449e-01,-7.80819058418273926e-01,-2.86275446414947510e-01,-2.35077440738677979e-02,-7.49533414840698242e-01,-7.72969245910644531e-01,-7.74729967117309570e-01,-2.86275446414947510e-01,6.29707798361778259e-02,-2.35077440738677979e-02,1.49449303746223450e-01,3.22406351566314697e-01,3.22406351566314697e-01,4.38740372657775879e-01,5.55074393749237061e-01,6.74129426479339600e-01,7.55076885223388672e-01,7.13648319244384766e-01],"default_left":[true,true,true,true,true,true,true,true,true,true,true,true,true,true,true,true,false,true,true,true,false,true,true,true,false,false,true,true,false,true,true,true,true,true,true,false,false,false,false,false,false,false,false,false,false,false,false,false,false,false,false,false,false],"id":1,"leaf_child_counts":[0,0,0,0,0,0,0,0,0,0,0,0,0,0,0,0,0,0,0,0,0,0,0,0,0,0,0,0,0,0,0,0,0,0,0,0,0,0,0,0,0,0,0,0,0,0,0,0,0,0,0,0,0],"left_children":[1,3,5,7,9,11,13,15,17,19,21,23,25,27,29,-1,-1,-1,35,37,-1,39,41,43,-1,-1,45,47,-1,49,51,-1,-1,-1,-1,-1,-1,-1,-1,-1,-1,-1,-1,-1,-1,-1,-1,-1,-1,-1,-1,-1,-1],"loss_changes":[1.94224140625000000e+04,5.84239257812500000e+02,1.83714355468750000e+03,9.05292968750000000e+01,7.13006469726562500e+02,1.85238983154296875e+02,1.32661132812500000e+02,3.71476745605468750e+02,2.70507812500000000e-01,1.20741706848144531e+02,5.55912597656250000e+02,5.12518005371093750e+01,5.64871826171875000e+01,9.74043273925781250e+01,4.74150390625000000e+01,5.60302734375000000e-02,0.00000000000000000e+00,3.66210937500000000e-02,5.12451171875000000e-01,2.72165012359619141e+01,0.00000000000000000e+00,3.39843750000000000e-01,2.49131896972656250e+02,1.86431655883789062e+01,0.00000000000000000e+00,0.00000000000000000e+00,1.56555175781250000e+01,3.81367530822753906e+01,0.00000000000000000e+00,5.05112304687500000e+01,5.25781250000000000e+00,0.00000000000000000e+00,0.00000000000000000e+00,0.00000000000000000e+00,0.00000000000000000e+00,0.00000000000000000e+00,0.00000000000000000e+00,0.00000000000000000e+00,0.00000000000000000e+00,0.00000000000000000e+00,0.00000000000000000e+00,0.00000000000000000e+00,0.00000000000000000e+00,0.00000000000000000e+00,0.00000000000000000e+00,0.00000000000000000e+00,0.00000000000000000e+00,0.00000000000000000e+00,0.00000000000000000e+00,0.00000000000000000e+00,0.00000000000000000e+00,0.00000000000000000e+00,0.00000000000000000e+00],"parents":[2147483647,0,0,1,1,2,2,3,3,4,4,5,5,6,6,7,7,8,8,9,9,10,10,11,11,12,12,13,13,14,14,15,15,17,17,18,18,19,19,21,21,22,22,23,23,26,26,27,27,29,29,30,30],"right_children":[2,4,6,8,10,12,14,16,18,20,22,24,26,28,30,-1,-1,-1,36,38,-1,40,42,44,-1,-1,46,48,-1,50,52,-1,-1,-1,-1,-1,-1,-1,-1,-1,-1,-1,-1,-1,-1,-1,-1,-1,-1,-1,-1,-1,-1],"split_conditions":[3.60500007867813110e-01,3.23917597532272339e-01,3.99500012397766113e-01,8.39832031250000000e+03,2.04499997198581696e-02,7.35000014305114746e-01,5.95499992370605469e-01,8.39718457031250000e+03,5.23724198341369629e-01,1.40004269778728485e-02,5.53556680679321289e-01,9.29499983787536621e-01,7.04999983310699463e-01,7.74999976158142090e-01,9.02500033378601074e-01,-3.03365796804428101e-01,-9.40309744328260422e-03,-3.00820708274841309e-01,5.33288121223449707e-01,1.07500001788139343e-01,-1.14510178565979004e-01,5.33273458480834961e-01,1.14789262413978577e-01,4.99999988824129105e-03,5.97797222435474396e-02,5.97797222435474396e-02,5.34404039382934570e-01,8.95500004291534424e-01,2.22029760479927063e-01,7.47500002384185791e-01,4.39078472554683685e-02,-3.01965802907943726e-01,-3.08041453361511230e-01,-3.00666958093643188e-01,-3.04118871688842773e-01,-3.01806598901748657e-01,-3.12327623367309570e-01,-1.14510178565979004e-01,-9.40309744328260422e-03,-2.99813359975814819e-01,-3.09187710285186768e-01,-3.09891998767852783e-01,-1.14510178565979004e-01,2.51883119344711304e-02,-9.40309744328260422e-03,5.97797222435474396e-02,1.28962546586990356e-01,1.28962546586990356e-01,1.75496146082878113e-01,2.22029760479927063e-01,2.69651770591735840e-01,3.02030771970748901e-01,2.85459339618682861e-01],"split_indices":[18,2,7,0,12,8,7,0,3,1,4,18,11,8,7,3,0,5,4,18,0,4,5,11,0,0,4,18,0,16,1,2147483647,2147483647,2147483647,2147483647,0,0,0,0,0,0,0,0,0,0,0,0,0,0,0,0,0,0],"sum_hessian":[5.47158789062500000e+04,2.62793320312500000e+04,2.84365449218750000e+04,1.69213203125000000e+04,9.35801074218750000e+03,3.47566259765625000e+03,2.49608828125000000e+04,1.61639672851562500e+03,1.53049238281250000e+04,1.46958007812500000e+03,7.88843066406250000e+03,2.31108154296875000e+03,1.16458093261718750e+03,1.98644226074218750e+03,2.29744414062500000e+04,1.38331188964843750e+03,2.33084884643554688e+02,1.16419462890625000e+04,3.66297778320312500e+03,1.11809814453125000e+03,3.51481933593750000e+02,5.05489501953125000e+03,2.83353588867187500e+03,2.08407348632812500e+03,2.27008193969726562e+02,1.44902969360351562e+02,1.01967797851562500e+03,1.06419897460937500e+03,9.22243408203125000e+02,1.04060126953125000e+04,1.25684277343750000e+04,1.06461145019531250e+03,3.18700378417968750e+02,1.11234648437500000e+04,5.18481140136718750e+02,2.63028759765625000e+03,1.03269018554687500e+03,7.96423492431640625e+01,1.03845581054687500e+03,4.33157861328125000e+03,7.23315979003906250e+02,1.04419299316406250e+03,1.78934289550781250e+03,3.37904479980468750e+02,1.74616894531250000e+03,4.02223777770996094e+01,9.79455627441406250e+02,5.83019897460937500e+02,4.81179016113281250e+02,1.56851171875000000e+03,8.83750097656250000e+03,5.29259667968750000e+03,7.27583056640625000e+03],"tree_param":{"num_deleted":"4","num_feature":"21","num_nodes":"53","size_leaf_vector":"0"}},{"base_weights":[6.03764021889219293e-07,-4.78207319974899292e-01,5.07515430450439453e-01,-2.91086491197347641e-02,-5.33039331436157227e-01,1.46540552377700806e-02,5.60566365718841553e-01,1.46540552377700806e-02,-2.81073987483978271e-01,-6.12446248531341553e-01,-3.21879923343658447e-01,1.46540552377700806e-02,2.87610203027725220e-01,3.39280605316162109e-01,5.91328322887420654e-01,-2.81073987483978271e-01,1.46540552377700806e-02,-6.55882060527801514e-01,-5.22760808467864990e-01,-4.67163085937500000e-01,-2.81073987483978271e-01,1.46540552377700806e-02,2.18390718102455139e-01,2.87610203027725220e-01,1.46540552377700806e-02,2.87610203027725220e-01,4.65304464101791382e-01,5.49709439277648926e-01,6.31189167499542236e-01,-1.33209973573684692e-01,1.46540552377700806e-02,-6.53980255126953125e-01,-6.73148751258850098e-01,-4.67163085937500000e-01,-6.71015799045562744e-01,-4.67163085937500000e-01,-2.81073987483978271e-01,-2.81073987483978271e-01,-4.67163085937500000e-01,1.16522386670112610e-01,2.87610203027725220e-01,2.87610203027725220e-01,3.76457333564758301e-01,3.76457333564758301e-01,4.65304464101791382e-01,5.77695846557617188e-01,4.65304464101791382e-01,6.11687779426574707e-01,6.47434651851654053e-01],"default_left":[true,true,true,true,true,true,true,true,false,true,true,true,true,true,true,false,true,true,true,true,true,false,true,false,false,true,true,true,true,false,false,false,false,false,false,false,false,false,false,false,false,false,false,false,false,false,false,false,false],"id":2,"leaf_child_counts":[0,0,0,0,0,0,0,0,0,0,0,0,0,0,0,0,0,0,0,0,0,0,0,0,0,0,0,0,0,0,0,0,0,0,0,0,0,0,0,0,0,0,0,0,0,0,0,0,0],"left_children":[1,3,5,7,9,11,13,15,-1,17,19,21,23,25,27,-1,29,31,33,35,37,-1,39,-1,-1,41,43,45,47,-1,-1,-1,-1,-1,-1,-1,-1,-1,-1,-1,-1,-1,-1,-1,-1,-1,-1,-1,-1],"loss_changes":[1.07522900390625000e+04,5.61701171875000000e+02,7.93056152343750000e+02,2.19241333007812500e+02,3.40854492187500000e+02,5.23228073120117188e+01,1.37367187500000000e+02,1.09738769531250000e+02,0.00000000000000000e+00,5.75483398437500000e+01,1.70059875488281250e+02,1.32070236206054688e+01,1.33095016479492188e+01,9.59059753417968750e+01,2.93911132812500000e+01,0.00000000000000000e+00,2.54637889862060547e+01,3.26660156250000000e-01,1.07193481445312500e+02,1.35562683105468750e+02,6.98679199218750000e+01,0.00000000000000000e+00,2.77482376098632812e+01,0.00000000000000000e+00,0.00000000000000000e+00,3.21716766357421875e+01,6.41531372070312500e+00,3.93142089843750000e+01,2.86669921875000000e+00,0.00000000000000000e+00,0.00000000000000000e+00,0.00000000000000000e+00,0.00000000000000000e+00,0.00000000000000000e+00,0.00000000000000000e+00,0.00000000000000000e+00,0.00000000000000000e+00,0.00000000000000000e+00,0.00000000000000000e+00,0.00000000000000000e+00,0.00000000000000000e+00,0.00000000000000000e+00,0.00000000000000000e+00,0.00000000000000000e+00,0.00000000000000000e+00,0.00000000000000000e+00,0.00000000000000000e+00,0.00000000000000000e+00,0.00000000000000000e+00],"parents":[2147483647,0,0,1,1,2,2,3,3,4,4,5,5,6,6,7,7,9,9,10,10,11,11,12,12,13,13,14,14,16,16,17,17,18,18,19,19,20,20,22,22,25,25,26,26,27,27,28,28],"right_children":[2,4,6,8,10,12,14,16,-1,18,20,22,24,26,28,-1,30,32,34,36,38,-1,40,-1,-1,42,44,46,48,-1,-1,-1,-1,-1,-1,-1,-1,-1,-1,-1,-1,-1,-1,-1,-1,-1,-1,-1,-1],"split_conditions":[9.37742471694946289e-01,2.04499997198581696e-02,2.22499996423721313e-01,1.49339511990547180e-02,4.69500005245208740e-01,5.86839675903320312e-01,5.95499992370605469e-01,1.07500001788139343e-01,-1.12429596483707428e-01,5.33304154872894287e-01,3.31536293029785156e-01,1.57499998807907104e-01,5.87617039680480957e-01,7.35000014305114746e-01,9.12500023841857910e-01,-1.12429596483707428e-01,5.23887947201728821e-03,1.75000011920928955e-01,5.53587079048156738e-01,5.71500003337860107e-01,1.36504799127578735e-01,5.86162228137254715e-03,5.81348061561584473e-01,1.15044079720973969e-01,5.86162228137254715e-03,8.96499991416931152e-01,1.41458945312500000e+04,6.03231675922870636e-02,9.58500027656555176e-01,-5.32839894294738770e-02,5.86162228137254715e-03,-2.61592119932174683e-01,-2.69259512424468994e-01,-1.86865240335464478e-01,-2.68406331539154053e-01,-1.86865240335464478e-01,-1.12429596483707428e-01,-1.12429596483707428e-01,-1.86865240335464478e-01,4.66089546680450439e-02,1.15044079720973969e-01,1.15044079720973969e-01,1.50582939386367798e-01,1.50582939386367798e-01,1.86121791601181030e-01,2.31078341603279114e-01,1.86121791601181030e-01,2.44675114750862122e-01,2.58973866701126099e-01],"split_indices":[20,12,7,1,7,2,7,18,0,4,2,7,2,8,7,0,1,11,4,18,5,0,4,0,0,18,0,1,7,0,0,0,0,0,0,0,0,0,0,0,0,0,0,0,0,0,0,0,0],"sum_hessian":[4.43032382812500000e+04,2.28102167968750000e+04,2.14930195312500000e+04,2.48194897460937500e+03,2.03282675781250000e+04,1.31326220703125000e+03,2.01797578125000000e+04,1.83249987792968750e+03,6.49449096679687500e+02,1.47728906250000000e+04,5.55537792968750000e+03,1.07702062988281250e+03,2.36241546630859375e+02,2.46290625000000000e+03,1.77168515625000000e+04,3.31838989257812500e+02,1.50066088867187500e+03,9.95267480468750000e+03,4.82021582031250000e+03,3.34428198242187500e+03,2.21109594726562500e+03,7.58846313476562500e+02,3.18174377441406250e+02,2.10874069213867188e+02,2.53674831390380859e+01,1.03631079101562500e+03,1.42659545898437500e+03,8.66729492187500000e+03,9.04955664062500000e+03,1.24082351684570312e+02,1.37657849121093750e+03,8.96524511718750000e+03,9.87429138183593750e+02,1.88216186523437500e+03,2.93805395507812500e+03,2.95235498046875000e+03,3.91926788330078125e+02,1.58392712402343750e+03,6.27168762207031250e+02,8.30196914672851562e+01,2.35154678344726562e+02,4.24698760986328125e+02,6.11611999511718750e+02,2.65894832611083984e+01,1.40000598144531250e+03,8.00059130859375000e+03,6.66703735351562500e+02,4.11266552734375000e+03,4.93689062500000000e+03],"tree_param":{"num_deleted":"0","num_feature":"21","num_nodes":"49","size_leaf_vector":"0"}},{"base_weights":[-1.51696738726059266e-07,-4.47061240673065186e-01,4.03981178998947144e-01,-6.14170014858245850e-01,-2.73583501577377319e-01,-2.15400308370590210e-02,5.24934411048889160e-01,-6.12461388111114502e-01,-6.16736829280853271e-01,-1.28600761294364929e-01,-5.34499943256378174e-01,-2.15400308370590210e-02,2.51697182655334473e-01,4.63432431221008301e-01,5.82165420055389404e-01,-6.12252414226531982e-01,-6.39983296394348145e-01,-6.46141409873962402e-01,-6.16439700126647949e-01,-6.24712228775024414e-01,-2.15400308370590210e-02,-6.22709274291992188e-01,-1.38054355978965759e-01,-2.15400308370590210e-02,1.15078575909137726e-01,1.15078575909137726e-01,2.51697182655334473e-01,2.51697182655334473e-01,4.89248275756835938e-01,6.18420600891113281e-01,5.56308567523956299e-01,-6.09714329242706299e-01,-6.14198267459869385e-01,-6.16887032985687256e-01,-6.03369653224945068e-01,-6.22428178787231445e-01,-6.70229852199554443e-01,-3.48170697689056396e-01,-2.15400308370590210e-02,-6.18153572082519531e-01,-6.48353219032287598e-01,-2.15400308370590210e-02,-6.25744163990020752e-01,4.67692725360393524e-02,-2.15400308370590210e-02,4.67692725360393524e-02,1.15078575909137726e-01,1.83387875556945801e-01,2.51697182655334473e-01,5.17472147941589355e-01,3.70472729206085205e-01,6.08714818954467773e-01,7.65027642250061035e-01,5.22798895835876465e-01,6.03344917297363281e-01],"default_left":[true,true,true,true,true,true,true,true,true,true,true,true,true,true,true,true,true,true,true,true,true,true,true,true,true,false,true,false,true,true,true,true,true,true,true,false,false,false,false,false,false,false,false,false,false,false,false,false,false,false,false,false,false,false,false],"id":3,"leaf_child_counts":[0,0,0,0,0,0,0,0,0,0,0,0,0,0,0,0,0,0,0,0,0,0,0,0,0,0,0,0,0,0,0,0,0,0,0,0,0,0,0,0,0,0,0,0,0,0,0,0,0,0,0,0,0,0,0],"left_children":[1,3,5,-1,9,11,13,-1,-1,19,21,23,25,27,29,-1,-1,-1,-1,35,37,39,41,43,45,-1,47,-1,49,51,53,-1,-1,-1,-1,-1,-1,-1,-1,-1,-1,-1,-1,-1,-1,-1,-1,-1,-1,-1,-1,-1,-1,-1,-1],"loss_changes":[6.35495068359375000e+03,4.84213623046875000e+02,9.64319580078125000e+02,3.71093750000000000e-02,3.10015686035156250e+02,2.05900329589843750e+02,5.08132324218750000e+01,2.89306640625000000e-02,2.94189453125000000e-02,4.68776519775390625e+02,1.02367431640625000e+02,6.23325805664062500e+01,1.38435363769531250e+01,7.30062255859375000e+01,7.00976562500000000e+00,2.46582031250000000e-02,0.00000000000000000e+00,0.00000000000000000e+00,1.91650390625000000e-02,1.50756835937500000e-01,1.11591781616210938e+02,2.79296875000000000e-01,1.17999771118164062e+02,9.70600891113281250e+00,7.95398330688476562e+00,0.00000000000000000e+00,3.73333740234375000e+00,0.00000000000000000e+00,3.89587402343750000e+01,4.42919921875000000e+00,9.92858886718750000e+00,0.00000000000000000e+00,0.00000000000000000e+00,0.00000000000000000e+00,0.00000000000000000e+00,0.00000000000000000e+00,0.00000000000000000e+00,0.00000000000000000e+00,0.00000000000000000e+00,0.00000000000000000e+00,0.00000000000000000e+00,0.00000000000000000e+00,0.00000000000000000e+00,0.00000000000000000e+00,0.00000000000000000e+00,0.00000000000000000e+00,0.00000000000000000e+00,0.00000000000000000e+00,0.00000000000000000e+00,0.00000000000000000e+00,0.00000000000000000e+00,0.00000000000000000e+00,0.00000000000000000e+00,0.00000000000000000e+00,0.00000000000000000e+00],"parents":[2147483647,0,0,1,1,2,2,3,3,4,4,5,5,6,6,7,7,8,8,9,9,10,10,11,11,12,12,13,13,14,14,15,15,18,18,19,19,20,20,21,21,22,22,23,23,24,24,26,26,28,28,29,29,30,30],"right_children":[2,4,6,-1,10,12,14,-1,-1,20,22,24,26,28,30,-1,-1,-1,-1,36,38,40,42,44,46,-1,48,-1,50,52,54,-1,-1,-1,-1,-1,-1,-1,-1,-1,-1,-1,-1,-1,-1,-1,-1,-1,-1,-1,-1,-1,-1,-1,-1],"split_conditions":[3.60500007867813110e-01,5.24061381816864014e-01,5.76499998569488525e-01,-2.45668008923530579e-01,1.36389255523681641e-01,7.74999976158142090e-01,9.02500033378601074e-01,-2.44984552264213562e-01,-2.46694728732109070e-01,1.08533948659896851e-01,1.88745215535163879e-01,8.96499991416931152e-01,8.97500038146972656e-01,5.58500051498413086e-01,4.39078472554683685e-02,-2.44900971651077271e-01,-2.55993336439132690e-01,-2.58456557989120483e-01,-2.46575877070426941e-01,5.97652755677700043e-02,1.07500003650784492e-04,5.47332882881164551e-01,1.88817918300628662e-01,3.09000033885240555e-02,1.39439553022384644e-01,4.60314303636550903e-02,1.41934648437500000e+04,1.00678876042366028e-01,6.03231675922870636e-02,9.77499961853027344e-01,9.67499971389770508e-01,-2.43885740637779236e-01,-2.45679304003715515e-01,-2.46754810214042664e-01,-2.41347864270210266e-01,-2.48971268534660339e-01,-2.68091946840286255e-01,-1.39268279075622559e-01,-8.61601252108812332e-03,-2.47261434793472290e-01,-2.59341299533843994e-01,-8.61601252108812332e-03,-2.50297665596008301e-01,1.87077093869447708e-02,-8.61601252108812332e-03,1.87077093869447708e-02,4.60314303636550903e-02,7.33551532030105591e-02,1.00678876042366028e-01,2.06988856196403503e-01,1.48189097642898560e-01,2.43485927581787109e-01,3.06011050939559937e-01,2.09119558334350586e-01,2.41337969899177551e-01],"split_indices":[18,3,7,3,5,8,7,2147483647,2147483647,5,5,18,17,18,1,2147483647,2147483647,2147483647,2147483647,1,20,4,5,5,5,0,0,0,1,7,7,2147483647,2147483647,2147483647,2147483647,0,0,0,0,0,0,0,0,0,0,0,0,0,0,0,0,0,0,0,0],"sum_hessian":[3.51871406250000000e+04,1.67029843750000000e+04,1.84841562500000000e+04,8.50766308593750000e+03,8.19532128906250000e+03,4.04772314453125000e+03,1.44364335937500000e+04,5.10778417968750000e+03,3.39987890625000000e+03,5.26804345703125000e+03,2.92727832031250000e+03,2.78053247070312500e+03,1.26719091796875000e+03,6.95857617187500000e+03,7.47785742187500000e+03,5.06932421875000000e+03,3.84600143432617188e+01,3.39877662658691406e+01,3.36589111328125000e+03,1.45446447753906250e+03,3.81357885742187500e+03,2.39450048828125000e+03,5.32777832031250000e+02,2.21856005859375000e+03,5.61972229003906250e+02,5.27826347351074219e+01,1.21440820312500000e+03,1.36525390625000000e+02,6.82205078125000000e+03,3.11297998046875000e+03,4.36487744140625000e+03,2.19996704101562500e+03,2.86935717773437500e+03,3.25446875000000000e+03,1.11422416687011719e+02,1.38498254394531250e+03,6.94819488525390625e+01,1.04596667480468750e+03,2.76761206054687500e+03,2.03330810546875000e+03,3.61192260742187500e+02,1.89734786987304688e+02,3.43043029785156250e+02,1.81465118408203125e+02,2.03709509277343750e+03,6.47673721313476562e+01,4.97204833984375000e+02,2.45170364379882812e+01,1.18989123535156250e+03,6.25679345703125000e+03,5.65257385253906250e+02,2.91969360351562500e+03,1.93286285400390625e+02,2.07895483398437500e+03,2.28592260742187500e+03],"tree_param":{"num_deleted":"10","num_feature":"21","num_nodes":"55","size_leaf_vector":"0"}},{"base_weights":[4.57925438013262465e-07,-3.56523185968399048e-01,3.88074219226837158e-01,1.57755166292190552e-02,-4.34748888015747070e-01,1.57755166292190552e-02,4.89179700613021851e-01,1.57755166292190552e-02,-2.09486693143844604e-01,-5.86855769157409668e-01,-2.91014462709426880e-01,1.57755166292190552e-02,2.52477616071701050e-01,4.25000518560409546e-01,5.55244624614715576e-01,-2.09486693143844604e-01,1.57755166292190552e-02,-2.09486693143844604e-01,1.57755166292190552e-02,-5.83565890789031982e-01,-5.96318483352661133e-01,-2.09486693143844604e-01,-4.38935101032257080e-01,1.57755166292190552e-02,1.34126573801040649e-01,1.34126573801040649e-01,2.52477616071701050e-01,4.61893260478973389e-01,2.52477616071701050e-01,5.80919146537780762e-01,5.14200389385223389e-01,-9.68555882573127747e-02,1.57755166292190552e-02,-5.83207309246063232e-01,-6.18849098682403564e-01,-5.90398311614990234e-01,-6.06619060039520264e-01,-4.38935101032257080e-01,-2.09486693143844604e-01,-4.38935101032257080e-01,-2.09486693143844604e-01,1.57755166292190552e-02,1.57755166292190552e-02,7.49510452151298523e-02,1.34126573801040649e-01,1.34126573801040649e-01,1.93302094936370850e-01,1.93302094936370850e-01,2.52477616071701050e-01,2.52477616071701050e-01,4.76904481649398804e-01,2.52477616071701050e-01,4.81156498193740845e-01,5.75134694576263428e-01,6.45856440067291260e-01,4.90122556686401367e-01,5.75245082378387451e-01],"default_left":[true,true,true,true,true,true,true,true,true,true,true,true,true,true,true,false,true,false,false,true,true,true,true,true,true,true,true,true,true,true,true,false,false,true,true,true,true,false,false,false,false,true,true,false,false,false,false,false,false,false,false,false,false,false,false,false,false],"id":4,"leaf_child_counts":[0,0,0,0,0,0,0,0,0,0,0,0,0,0,0,0,0,0,0,0,0,0,0,0,0,0,0,0,0,0,0,0,0,0,0,0,0,0,0,0,0,0,0,0,0,0,0,0,0,0,0,0,0,0,0,0,0],"left_children":[1,3,5,7,9,11,13,15,17,19,21,23,25,27,29,-1,31,-1,-1,-1,-1,37,39,-1,43,45,47,49,51,53,55,-1,-1,-1,-1,-1,-1,-1,-1,-1,-1,-1,-1,-1,-1,-1,-1,-1,-1,-1,-1,-1,-1,-1,-1,-1,-1],"loss_changes":[3.84294628906250000e+03,4.75440307617187500e+02,5.32523559570312500e+02,1.06439697265625000e+02,2.67339111328125000e+02,1.40289733886718750e+02,4.49497070312500000e+01,5.03348121643066406e+01,2.78125915527343750e+01,1.84570312500000000e-01,2.17619262695312500e+02,4.39695014953613281e+01,1.51764678955078125e+01,5.42447509765625000e+01,5.50451660156250000e+00,0.00000000000000000e+00,1.42573356628417969e+01,0.00000000000000000e+00,0.00000000000000000e+00,5.54199218750000000e-02,9.30786132812500000e-02,1.52865127563476562e+02,4.68850708007812500e+01,1.90734863281250000e-06,5.28057098388671875e+00,7.65574026107788086e+00,3.39671325683593750e+00,2.90833740234375000e+01,1.23811073303222656e+01,1.20678710937500000e+00,8.52532958984375000e+00,0.00000000000000000e+00,0.00000000000000000e+00,0.00000000000000000e+00,0.00000000000000000e+00,0.00000000000000000e+00,0.00000000000000000e+00,0.00000000000000000e+00,0.00000000000000000e+00,0.00000000000000000e+00,0.00000000000000000e+00,0.00000000000000000e+00,0.00000000000000000e+00,0.00000000000000000e+00,0.00000000000000000e+00,0.00000000000000000e+00,0.00000000000000000e+00,0.00000000000000000e+00,0.00000000000000000e+00,0.00000000000000000e+00,0.00000000000000000e+00,0.00000000000000000e+00,0.00000000000000000e+00,0.00000000000000000e+00,0.00000000000000000e+00,0.00000000000000000e+00,0.00000000000000000e+00],"parents":[2147483647,0,0,1,1,2,2,3,3,4,4,5,5,6,6,7,7,8,8,9,9,10,10,11,11,12,12,13,13,14,14,16,16,19,19,20,20,21,21,22,22,23,23,24,24,25,25,26,26,27,27,28,28,29,29,30,30],"right_children":[2,4,6,8,10,12,14,16,18,20,22,24,26,28,30,-1,32,-1,-1,-1,-1,38,40,-1,44,46,48,50,52,54,56,-1,-1,-1,-1,-1,-1,-1,-1,-1,-1,-1,-1,-1,-1,-1,-1,-1,-1,-1,-1,-1,-1,-1,-1,-1,-1],"split_conditions":[8.62499952316284180e-01,2.04499997198581696e-02,5.95499992370605469e-01,1.49339511990547180e-02,5.75000001117587090e-03,7.35000014305114746e-01,9.12500023841857910e-01,1.07500001788139343e-01,9.62499976158142090e-01,5.33250451087951660e-01,1.36386945843696594e-01,8.96499991416931152e-01,2.22499996423721313e-01,6.03231675922870636e-02,6.02928958833217621e-02,-8.37946757674217224e-02,5.23887947201728821e-03,-8.37946757674217224e-02,6.31020683795213699e-03,-2.33426362276077271e-01,-2.38527402281761169e-01,1.14775002002716064e-01,7.78723478317260742e-01,6.31020683795213699e-03,1.39439553022384644e-01,5.84397137165069580e-01,1.41934648437500000e+04,5.57999968528747559e-01,1.61222001953125000e+04,9.80000019073486328e-01,9.67499971389770508e-01,-3.87422367930412292e-02,6.31020683795213699e-03,-2.33282923698425293e-01,-2.47539639472961426e-01,-2.36159324645996094e-01,-2.42647632956504822e-01,-1.75574049353599548e-01,-8.37946757674217224e-02,-1.75574049353599548e-01,-8.37946757674217224e-02,6.31020683795213699e-03,6.31020683795213699e-03,2.99804192036390305e-02,5.36506287753582001e-02,5.36506287753582001e-02,7.73208364844322205e-02,7.73208364844322205e-02,1.00991047918796539e-01,1.00991047918796539e-01,1.90761789679527283e-01,1.00991047918796539e-01,1.92462608218193054e-01,2.30053886771202087e-01,2.58342593908309937e-01,1.96049019694328308e-01,2.30098038911819458e-01],"split_indices":[17,12,7,1,13,8,7,18,7,4,5,18,7,1,1,0,1,0,0,12,3,5,19,0,5,2,0,18,0,7,7,0,0,2147483647,2147483647,2147483647,2147483647,0,0,0,0,2147483647,2147483647,0,0,0,0,0,0,0,0,0,0,0,0,0,0],"sum_hessian":[2.77754863281250000e+04,1.44761953125000000e+04,1.32992900390625000e+04,2.24825585937500000e+03,1.22279394531250000e+04,2.69792016601562500e+03,1.06013701171875000e+04,1.62816271972656250e+03,6.20093078613281250e+02,5.94093994140625000e+03,6.28700000000000000e+03,1.43866271972656250e+03,1.25925744628906250e+03,5.37743359375000000e+03,5.22393652343750000e+03,2.15930053710937500e+02,1.41223266601562500e+03,5.12098327636718750e+02,1.07994789123535156e+02,4.40835498046875000e+03,1.53258483886718750e+03,3.59955346679687500e+03,2.68744653320312500e+03,9.56350708007812500e+02,4.82312072753906250e+02,2.83963012695312500e+02,9.75294372558593750e+02,4.88656054687500000e+03,4.90873077392578125e+02,3.21366674804687500e+03,2.01026977539062500e+03,9.98423385620117188e+01,1.31239038085937500e+03,4.36402099609375000e+03,4.43338851928710938e+01,9.73265869140625000e+02,5.59318969726562500e+02,1.18445471191406250e+03,2.41509863281250000e+03,2.48318261718750000e+03,2.04264007568359375e+02,9.34658630371093750e+02,2.16920528411865234e+01,5.09027938842773438e+01,4.31409271240234375e+02,1.30605545043945312e+02,1.53357467651367188e+02,2.53834495544433594e+01,9.49910949707031250e+02,5.44069900512695312e+01,4.83215380859375000e+03,2.54113449096679688e+02,2.36759643554687500e+02,2.95082543945312500e+03,2.62841491699218750e+02,6.72820129394531250e+02,1.33744958496093750e+03],"tree_param":{"num_deleted":"6","num_feature":"21","num_nodes":"57","size_leaf_vector":"0"}},{"base_weights":[4.11448262127578346e-08,-3.35056006908416748e-01,3.25997292995452881e-01,-5.27812898159027100e-01,-8.07745456695556641e-02,-4.52935695648193359e-03,4.41866099834442139e-01,-1.51704117655754089e-01,-5.77429115772247314e-01,-4.52935695648193359e-03,-3.40128123760223389e-01,-4.52935695648193359e-03,2.18668371438980103e-01,3.76278102397918701e-01,5.22084057331085205e-01,-5.78152000904083252e-01,-4.52935695648193359e-03,-5.74415683746337891e-01,-5.84157407283782959e-01,-1.72328740358352661e-01,-4.52935695648193359e-03,-5.81713855266571045e-01,-1.72328740358352661e-01,-4.52935695648193359e-03,1.07069507241249084e-01,1.07069507241249084e-01,2.18668371438980103e-01,4.19609338045120239e-01,2.18668371438980103e-01,5.54017722606658936e-01,4.76585239171981812e-01,-5.72729110717773438e-01,-5.85856437683105469e-01,-5.74091792106628418e-01,-6.29577875137329102e-01,-5.79454600811004639e-01,-5.95964610576629639e-01,-1.72328740358352661e-01,-4.52935695648193359e-03,-4.52935695648193359e-03,-1.72328740358352661e-01,-5.74059665203094482e-01,-5.88330984115600586e-01,-3.77021312713623047e-01,-1.72328740358352661e-01,5.12700751423835754e-02,-4.52935695648193359e-03,5.12700751423835754e-02,1.07069507241249084e-01,1.07069507241249084e-01,1.62868946790695190e-01,1.62868946790695190e-01,2.18668371438980103e-01,2.18668371438980103e-01,4.32515829801559448e-01,4.49181079864501953e-01,2.18668371438980103e-01,5.74992418289184570e-01,5.26637494564056396e-01,4.49181079864501953e-01,5.61008334159851074e-01],"default_left":[true,true,true,true,true,true,true,true,true,true,true,true,true,true,true,true,false,true,true,true,true,true,true,true,true,true,true,true,true,true,true,true,true,true,true,true,true,false,false,false,false,true,true,false,false,false,false,false,false,false,false,false,false,false,false,false,false,false,false,false,false],"id":5,"leaf_child_counts":[0,0,0,0,0,0,0,0,0,0,0,0,0,0,0,0,0,0,0,0,0,0,0,0,0,0,0,0,0,0,0,0,0,0,0,0,0,0,0,0,0,0,0,0,0,0,0,0,0,0,0,0,0,0,0,0,0,0,0,0,0],"left_children":[1,3,5,7,9,11,13,15,17,19,21,23,25,27,29,-1,-1,-1,-1,37,39,-1,43,45,47,49,51,53,55,57,59,-1,-1,-1,-1,-1,-1,-1,-1,-1,-1,-1,-1,-1,-1,-1,-1,-1,-1,-1,-1,-1,-1,-1,-1,-1,-1,-1,-1,-1,-1],"loss_changes":[2.42711181640625000e+03,5.37106567382812500e+02,4.37040161132812500e+02,1.16316650390625000e+02,2.51445892333984375e+02,9.54683990478515625e+01,4.40260009765625000e+01,1.51967971801757812e+02,1.11328125000000000e-01,4.66918601989746094e+01,2.10197235107421875e+02,3.54989471435546875e+01,2.08318023681640625e+01,5.38952026367187500e+01,5.46875000000000000e+00,2.09655761718750000e-02,0.00000000000000000e+00,6.76269531250000000e-02,9.42382812500000000e-02,3.19555892944335938e+01,2.59658889770507812e+01,8.42285156250000000e-02,3.17852783203125000e+01,9.14461898803710938e+00,5.02701950073242188e+00,5.45010852813720703e+00,2.48211669921875000e+00,2.04437255859375000e+01,8.30202865600585938e+00,1.26989746093750000e+00,1.15312500000000000e+01,0.00000000000000000e+00,0.00000000000000000e+00,0.00000000000000000e+00,0.00000000000000000e+00,0.00000000000000000e+00,0.00000000000000000e+00,0.00000000000000000e+00,0.00000000000000000e+00,0.00000000000000000e+00,0.00000000000000000e+00,0.00000000000000000e+00,0.00000000000000000e+00,0.00000000000000000e+00,0.00000000000000000e+00,0.00000000000000000e+00,0.00000000000000000e+00,0.00000000000000000e+00,0.00000000000000000e+00,0.00000000000000000e+00,0.00000000000000000e+00,0.00000000000000000e+00,0.00000000000000000e+00,0.00000000000000000e+00,0.00000000000000000e+00,0.00000000000000000e+00,0.00000000000000000e+00,0.00000000000000000e+00,0.00000000000000000e+00,0.00000000000000000e+00,0.00000000000000000e+00],"parents":[2147483647,0,0,1,1,2,2,3,3,4,4,5,5,6,6,7,7,8,8,9,9,10,10,11,11,12,12,13,13,14,14,15,15,17,17,18,18,19,19,20,20,21,21,22,22,23,23,24,24,25,25,26,26,27,27,28,28,29,29,30,30],"right_children":[2,4,6,8,10,12,14,16,18,20,22,24,26,28,30,-1,-1,-1,-1,38,40,-1,44,46,48,50,52,54,56,58,60,-1,-1,-1,-1,-1,-1,-1,-1,-1,-1,-1,-1,-1,-1,-1,-1,-1,-1,-1,-1,-1,-1,-1,-1,-1,-1,-1,-1,-1,-1],"split_conditions":[4.70499992370605469e-01,3.23917597532272339e-01,5.76499998569488525e-01,8.39832031250000000e+03,8.34500044584274292e-02,7.35000014305114746e-01,9.12500023841857910e-01,8.39718457031250000e+03,5.32345652580261230e-01,1.87835351562500000e+04,9.30500030517578125e-01,8.96499991416931152e-01,2.22499996423721313e-01,6.03231675922870636e-02,6.02928958833217621e-02,-2.31260806322097778e-01,-1.81174278259277344e-03,-2.29766279458999634e-01,-2.33662962913513184e-01,9.62499976158142090e-01,1.78891457617282867e-02,-2.32685551047325134e-01,5.72688460350036621e-01,4.99999988824129105e-03,1.39439553022384644e-01,5.85986733436584473e-01,1.41458945312500000e+04,5.58500051498413086e-01,4.99999988824129105e-03,3.72613668441772461e-02,9.67499971389770508e-01,-2.29091644287109375e-01,-2.34342575073242188e-01,-2.29636713862419128e-01,-2.51831144094467163e-01,-2.31781840324401855e-01,-2.38385841250419617e-01,-6.89314976334571838e-02,-1.81174278259277344e-03,-1.81174278259277344e-03,-6.89314976334571838e-02,-2.29623869061470032e-01,-2.35332399606704712e-01,-1.50808528065681458e-01,-6.89314976334571838e-02,2.05080304294824600e-02,-1.81174278259277344e-03,2.05080304294824600e-02,4.28278036415576935e-02,4.28278036415576935e-02,6.51475787162780762e-02,6.51475787162780762e-02,8.74673500657081604e-02,8.74673500657081604e-02,1.73006340861320496e-01,1.79672434926033020e-01,8.74673500657081604e-02,2.29996964335441589e-01,2.10655003786087036e-01,1.79672434926033020e-01,2.24403336644172668e-01],"split_indices":[18,2,7,0,12,8,7,0,4,0,6,18,7,1,1,3,0,1,3,7,1,4,4,11,5,2,0,18,11,1,7,2147483647,2147483647,2147483647,2147483647,2147483647,2147483647,0,0,0,0,2147483647,2147483647,0,0,0,0,0,0,0,0,0,0,0,0,0,0,0,0,0,0],"sum_hessian":[2.22207324218750000e+04,1.09581142578125000e+04,1.12626181640625000e+04,6.23312353515625000e+03,4.72499072265625000e+03,2.89474414062500000e+03,8.36787402343750000e+03,7.26441223144531250e+02,5.50668212890625000e+03,2.24854296875000000e+03,2.47644775390625000e+03,1.80173779296875000e+03,1.09300622558593750e+03,4.60375146484375000e+03,3.76412304687500000e+03,5.09668029785156250e+02,2.16773193359375000e+02,3.80336621093750000e+03,1.70331604003906250e+03,6.00557495117187500e+02,1.64798559570312500e+03,1.67023852539062500e+03,8.06209289550781250e+02,1.37567211914062500e+03,4.26065765380859375e+02,2.79694030761718750e+02,8.13312255859375000e+02,4.16710205078125000e+03,4.36649169921875000e+02,2.21176904296875000e+03,1.55235400390625000e+03,2.99168518066406250e+02,2.10499526977539062e+02,3.78117626953125000e+03,2.21900386810302734e+01,1.21816674804687500e+03,4.85149291992187500e+02,4.50809020996093750e+02,1.49748428344726562e+02,1.49940380859375000e+03,1.48581817626953125e+02,7.74480285644531250e+02,8.95758178710937500e+02,2.51073242187500000e+02,5.55136047363281250e+02,2.25446624755859375e+02,1.15022546386718750e+03,5.24902496337890625e+01,3.73575500488281250e+02,1.55438186645507812e+02,1.24255851745605469e+02,2.16699695587158203e+01,7.91642272949218750e+02,4.07744255065917969e+01,4.12632763671875000e+03,8.92914886474609375e+01,3.47357696533203125e+02,1.25236840820312500e+03,9.59400695800781250e+02,5.37008239746093750e+02,1.01534570312500000e+03],"tree_param":{"num_deleted":"8","num_feature":"21","num_nodes":"61","size_leaf_vector":"0"}},{"base_weights":[-6.67204957949252275e-08,-2.89278000593185425e-01,2.80960828065872192e-01,-4.15858626365661621e-03,-3.71048659086227417e-01,-4.15858626365661621e-03,4.29271459579467773e-01,-1.87603622674942017e-01,-4.15858626365661621e-03,-5.64912796020507812e-01,-2.06549465656280518e-01,-4.15858626365661621e-03,2.12556436657905579e-01,3.13131898641586304e-01,4.91992592811584473e-01,-4.15858626365661621e-03,-9.58811044692993164e-02,-5.61544656753540039e-01,-6.62034630775451660e-01,-3.85731130838394165e-01,-1.87603622674942017e-01,-4.15858626365661621e-03,1.04198925197124481e-01,1.04198925197124481e-01,2.12556436657905579e-01,4.02562260627746582e-01,2.12556436657905579e-01,5.30759394168853760e-01,4.02562260627746582e-01,-9.58811044692993164e-02,-4.15858626365661621e-03,-5.59958994388580322e-01,-5.92860460281372070e-01,-6.32919907569885254e-01,-8.00126910209655762e-01,-3.85731130838394165e-01,-1.87603622674942017e-01,-1.87603622674942017e-01,-3.85731130838394165e-01,-4.15858626365661621e-03,5.00201694667339325e-02,5.00201694667339325e-02,1.04198925197124481e-01,1.58377677202224731e-01,2.12556436657905579e-01,2.12556436657905579e-01,4.02562260627746582e-01,2.12556436657905579e-01,4.02562260627746582e-01,5.05090057849884033e-01,6.96723103523254395e-01,4.02562260627746582e-01,5.47334015369415283e-01],"default_left":[true,true,true,true,true,true,true,false,true,true,true,true,true,true,true,true,false,true,true,true,true,true,true,false,true,true,true,true,true,false,false,false,false,false,false,false,false,false,false,false,false,false,false,false,false,false,false,false,false,false,false,false,false],"id":6,"leaf_child_counts":[0,0,0,0,0,0,0,0,0,0,0,0,0,0,0,0,0,0,0,0,0,0,0,0,0,0,0,0,0,0,0,0,0,0,0,0,0,0,0,0,0,0,0,0,0,0,0,0,0,0,0,0,0],"left_children":[1,3,5,7,9,11,13,-1,15,17,19,21,23,25,27,29,-1,31,33,35,37,39,41,-1,43,45,47,49,51,-1,-1,-1,-1,-1,-1,-1,-1,-1,-1,-1,-1,-1,-1,-1,-1,-1,-1,-1,-1,-1,-1,-1,-1],"loss_changes":[1.44092944335937500e+03,2.96050231933593750e+02,4.10094482421875000e+02,4.16760177612304688e+01,2.38371948242187500e+02,1.11707817077636719e+02,4.42512207031250000e+01,0.00000000000000000e+00,1.09502096176147461e+01,1.12194824218750000e+00,1.17963836669921875e+02,1.62580146789550781e+01,1.46380615234375000e+01,4.38307189941406250e+01,1.79539184570312500e+01,4.86866855621337891e+00,0.00000000000000000e+00,1.64306640625000000e-01,4.61830139160156250e-01,4.07572021484375000e+01,5.45637435913085938e+01,3.51157331466674805e+00,6.36498355865478516e+00,0.00000000000000000e+00,2.29797363281250000e+00,1.69501037597656250e+01,1.30748376846313477e+01,1.28315429687500000e+01,1.47835693359375000e+01,0.00000000000000000e+00,0.00000000000000000e+00,0.00000000000000000e+00,0.00000000000000000e+00,0.00000000000000000e+00,0.00000000000000000e+00,0.00000000000000000e+00,0.00000000000000000e+00,0.00000000000000000e+00,0.00000000000000000e+00,0.00000000000000000e+00,0.00000000000000000e+00,0.00000000000000000e+00,0.00000000000000000e+00,0.00000000000000000e+00,0.00000000000000000e+00,0.00000000000000000e+00,0.00000000000000000e+00,0.00000000000000000e+00,0.00000000000000000e+00,0.00000000000000000e+00,0.00000000000000000e+00,0.00000000000000000e+00,0.00000000000000000e+00],"parents":[2147483647,0,0,1,1,2,2,3,3,4,4,5,5,6,6,8,8,9,9,10,10,11,11,12,12,13,13,14,14,15,15,17,17,18,18,19,19,20,20,21,21,22,22,24,24,25,25,26,26,27,27,28,28],"right_children":[2,4,6,8,10,12,14,-1,16,18,20,22,24,26,28,30,-1,32,34,36,38,40,42,-1,44,46,48,50,52,-1,-1,-1,-1,-1,-1,-1,-1,-1,-1,-1,-1,-1,-1,-1,-1,-1,-1,-1,-1,-1,-1,-1,-1],"split_conditions":[3.68650019168853760e-01,2.04499997198581696e-02,7.16500043869018555e-01,1.07500001788139343e-01,5.75000001117587090e-03,9.98499989509582520e-01,8.71500015258789062e-01,-7.50414505600929260e-02,1.49339511990547180e-02,9.94249999523162842e-01,5.24059593677520752e-01,7.74999976158142090e-01,2.29999989271163940e-01,3.02268937230110168e-02,7.41991996765136719e-02,4.98782038688659668e-01,-3.83524410426616669e-02,9.76050019264221191e-01,3.55955027043819427e-02,5.72499990463256836e-01,1.35619953274726868e-01,3.24991106986999512e-01,2.22000002861022949e-01,4.16795723140239716e-02,1.05000004172325134e-01,9.23977494239807129e-01,6.89903855323791504e-01,7.26539567112922668e-02,9.67000007629394531e-01,-3.83524410426616669e-02,-1.66343455202877522e-03,-2.23983600735664368e-01,-2.37144187092781067e-01,-2.53167957067489624e-01,-3.20050776004791260e-01,-1.54292449355125427e-01,-7.50414505600929260e-02,-7.50414505600929260e-02,-1.54292449355125427e-01,-1.66343455202877522e-03,2.00080685317516327e-02,2.00080685317516327e-02,4.16795723140239716e-02,6.33510723710060120e-02,8.50225761532783508e-02,8.50225761532783508e-02,1.61024913191795349e-01,8.50225761532783508e-02,1.61024913191795349e-01,2.02036023139953613e-01,2.78689235448837280e-01,1.61024913191795349e-01,2.18933612108230591e-01],"split_indices":[13,12,7,18,13,17,7,0,1,12,3,8,7,1,1,3,0,12,1,18,5,5,7,0,11,19,4,1,7,0,0,0,0,0,0,0,0,0,0,0,0,0,0,0,0,0,0,0,0,0,0,0,0],"sum_hessian":[1.77288867187500000e+04,8.73515429687500000e+03,8.99373339843750000e+03,1.26044799804687500e+03,7.47470654296875000e+03,2.91892749023437500e+03,6.07480615234375000e+03,2.26760208129882812e+02,1.03368774414062500e+03,3.43110693359375000e+03,4.04359936523437500e+03,1.71904064941406250e+03,1.19988671875000000e+03,2.13025634765625000e+03,3.94454956054687500e+03,9.27858154296875000e+02,1.05829620361328125e+02,3.31611352539062500e+03,1.14993461608886719e+02,1.73004614257812500e+03,2.31355322265625000e+03,1.24213732910156250e+03,4.76903411865234375e+02,7.69341049194335938e+01,1.12295263671875000e+03,1.20885778808593750e+03,9.21398498535156250e+02,3.01205859375000000e+03,9.32490966796875000e+02,4.59881477355957031e+01,8.81869995117187500e+02,3.15631591796875000e+03,1.59797470092773438e+02,9.49749603271484375e+01,2.00185070037841797e+01,1.43112243652343750e+03,2.98923675537109375e+02,1.83582507324218750e+03,4.77728088378906250e+02,1.17919543457031250e+03,6.29418945312500000e+01,7.40109405517578125e+01,4.02892456054687500e+02,2.11973838806152344e+01,1.10175524902343750e+03,3.93003005981445312e+01,1.16955749511718750e+03,7.91732788085937500e+02,1.29665679931640625e+02,2.60859497070312500e+03,4.03463562011718750e+02,2.27123626708984375e+02,7.05367370605468750e+02],"tree_param":{"num_deleted":"0","num_feature":"21","num_nodes":"53","size_leaf_vector":"0"}},{"base_weights":[-2.04654725166619755e-07,-1.81119561195373535e-01,3.53488415479660034e-01,7.82089307904243469e-02,-3.18146884441375732e-01,8.61844271421432495e-02,4.03493046760559082e-01,8.61844271421432495e-02,-1.19968980550765991e-01,-5.55395543575286865e-01,-1.66980057954788208e-01,2.44838744401931763e-01,8.61844271421432495e-02,3.38620752096176147e-01,5.12723684310913086e-01,-1.19968980550765991e-01,8.61844271421432495e-02,8.61844271421432495e-02,-1.19968980550765991e-01,-5.52454054355621338e-01,-6.08988642692565918e-01,-3.61187815666198730e-01,-1.19968980550765991e-01,4.25672233104705811e-01,2.44838744401931763e-01,4.49474036693572998e-01,5.55131316184997559e-01,-1.68922767043113708e-02,8.61844271421432495e-02,-1.19968980550765991e-01,8.61844271421432495e-02,-1.19968980550765991e-01,8.61844271421432495e-02,-5.58111608028411865e-01,-5.48392355442047119e-01,-5.80721378326416016e-01,-6.53921246528625488e-01,-3.61187815666198730e-01,-1.19968980550765991e-01,-3.61187815666198730e-01,-1.19968980550765991e-01,2.44838744401931763e-01,4.25672233104705811e-01,4.25672233104705811e-01,2.44838744401931763e-01,5.58061897754669189e-01,4.25672233104705811e-01,4.25672233104705811e-01,5.66700220108032227e-01],"default_left":[true,true,true,true,true,true,true,true,true,true,true,false,false,true,true,false,true,true,true,true,true,true,true,true,true,true,true,false,false,false,false,false,false,true,true,false,false,false,false,false,false,false,false,false,false,false,false,false,false],"id":7,"leaf_child_counts":[0,0,0,0,0,0,0,0,0,0,0,0,0,0,0,0,0,0,0,0,0,0,0,0,0,0,0,0,0,0,0,0,0,0,0,0,0,0,0,0,0,0,0,0,0,0,0,0,0],"left_children":[1,3,5,7,9,11,13,15,17,19,21,-1,-1,23,25,-1,27,29,31,-1,35,37,39,41,43,45,47,-1,-1,-1,-1,-1,-1,-1,-1,-1,-1,-1,-1,-1,-1,-1,-1,-1,-1,-1,-1,-1,-1],"loss_changes":[9.47066833496093750e+02,3.47566345214843750e+02,1.01444274902343750e+02,6.29005432128906250e+01,2.29512084960937500e+02,2.30360794067382812e+01,3.23405151367187500e+01,3.71091842651367188e+01,5.59695320129394531e+01,3.92333984375000000e-01,1.27184547424316406e+02,0.00000000000000000e+00,0.00000000000000000e+00,4.93525085449218750e+01,4.56115722656250000e+00,0.00000000000000000e+00,1.08417892456054688e+01,1.38509197235107422e+01,3.68380432128906250e+01,5.39550781250000000e-02,1.92756652832031250e-01,5.63133239746093750e+01,6.30310020446777344e+01,7.98507690429687500e+00,1.03500556945800781e+01,5.28979492187500000e+00,2.09704589843750000e+00,0.00000000000000000e+00,0.00000000000000000e+00,0.00000000000000000e+00,0.00000000000000000e+00,0.00000000000000000e+00,0.00000000000000000e+00,0.00000000000000000e+00,0.00000000000000000e+00,0.00000000000000000e+00,0.00000000000000000e+00,0.00000000000000000e+00,0.00000000000000000e+00,0.00000000000000000e+00,0.00000000000000000e+00,0.00000000000000000e+00,0.00000000000000000e+00,0.00000000000000000e+00,0.00000000000000000e+00,0.00000000000000000e+00,0.00000000000000000e+00,0.00000000000000000e+00,0.00000000000000000e+00],"parents":[2147483647,0,0,1,1,2,2,3,3,4,4,5,5,6,6,7,7,8,8,9,9,10,10,13,13,14,14,16,16,17,17,18,18,19,19,20,20,21,21,22,22,23,23,24,24,25,25,26,26],"right_children":[2,4,6,8,10,12,14,16,18,20,22,-1,-1,24,26,-1,28,30,32,-1,36,38,40,42,44,46,48,-1,-1,-1,-1,-1,-1,-1,-1,-1,-1,-1,-1,-1,-1,-1,-1,-1,-1,-1,-1,-1,-1],"split_conditions":[7.56500005722045898e-01,2.43499986827373505e-02,3.68600010871887207e-01,1.49339511990547180e-02,5.75000001117587090e-03,1.52500001713633537e-02,9.44499969482421875e-01,1.07500001788139343e-01,5.78316599130630493e-02,9.88550007343292236e-01,5.33304154872894287e-01,9.79354977607727051e-02,3.44737730920314789e-02,2.92184241116046906e-02,3.72444719076156616e-01,-4.79875914752483368e-02,1.59275507812500000e+04,4.26999986171722412e-01,8.73499989509582520e-01,-2.20981627702713013e-01,5.68950176239013672e-01,5.72499990463256836e-01,5.24059593677520752e-01,9.64408516883850098e-01,4.99999988824129105e-03,3.77535894513130188e-02,6.10000014305114746e-01,-6.75691058859229088e-03,3.44737730920314789e-02,-4.79875914752483368e-02,3.44737730920314789e-02,-4.79875914752483368e-02,3.44737730920314789e-02,-2.23244652152061462e-01,-2.19356939196586609e-01,-2.32288554310798645e-01,-2.61568516492843628e-01,-1.44475132226943970e-01,-4.79875914752483368e-02,-1.44475132226943970e-01,-4.79875914752483368e-02,9.79354977607727051e-02,1.70268893241882324e-01,1.70268893241882324e-01,9.79354977607727051e-02,2.23224759101867676e-01,1.70268893241882324e-01,1.70268893241882324e-01,2.26680085062980652e-01],"split_indices":[7,12,13,1,13,12,7,18,5,12,4,0,0,1,2,0,0,7,18,5,3,18,3,20,11,1,8,0,0,0,0,0,0,2147483647,2147483647,0,0,0,0,0,0,0,0,0,0,0,0,0,0],"sum_hessian":[1.47924550781250000e+04,9.78093261718750000e+03,5.01152197265625000e+03,3.38144458007812500e+03,6.39948828125000000e+03,4.47527496337890625e+02,4.56399462890625000e+03,2.01936572265625000e+03,1.36207885742187500e+03,2.49060595703125000e+03,3.90888232421875000e+03,1.58363555908203125e+02,2.89163940429687500e+02,2.86341235351562500e+03,1.70058203125000000e+03,1.57057250976562500e+02,1.86230847167968750e+03,3.68063995361328125e+02,9.94014831542968750e+02,2.36103027343750000e+03,1.29575790405273438e+02,1.68395971679687500e+03,2.22492260742187500e+03,1.34935888671875000e+03,1.51405358886718750e+03,6.82566955566406250e+02,1.01801507568359375e+03,1.59997024536132812e+02,1.70231140136718750e+03,4.36711006164550781e+01,3.24392913818359375e+02,6.86965393066406250e+02,3.07049407958984375e+02,9.86622680664062500e+02,1.37440747070312500e+03,7.42167510986328125e+01,5.53590354919433594e+01,1.21345507812500000e+03,4.70504669189453125e+02,6.48345764160156250e+02,1.57657678222656250e+03,2.07080001831054688e+01,1.32865087890625000e+03,2.68905792236328125e+02,1.24514782714843750e+03,3.23879547119140625e+02,3.58687408447265625e+02,5.47230911254882812e+01,9.63291992187500000e+02],"tree_param":{"num_deleted":"2","num_feature":"21","num_nodes":"49","size_leaf_vector":"0"}},{"base_weights":[-9.91538655625845422e-08,-2.35496237874031067e-01,2.17927068471908569e-01,-5.35629987716674805e-01,-2.96984408050775528e-02,-8.78458470106124878e-03,3.12779188156127930e-01,-5.56169092655181885e-01,-8.78458470106124878e-03,-5.73965966701507568e-01,-8.78458470106124878e-03,-8.78458470106124878e-03,1.51997298002243042e-01,2.39771619439125061e-01,4.49566662311553955e-01,-5.54615557193756104e-01,-6.26726269721984863e-01,-5.68785130977630615e-01,-6.32037639617919922e-01,-8.78458470106124878e-03,-4.03728246688842773e-01,1.51997298002243042e-01,-8.78458470106124878e-03,-8.78458470106124878e-03,1.51997298002243042e-01,3.44669133424758911e-01,1.72545045614242554e-01,5.21473467350006104e-01,3.47670018672943115e-01,-5.53544223308563232e-01,-5.76869249343872070e-01,-6.78422689437866211e-01,-5.82762718200683594e-01,-5.60205996036529541e-01,-5.82162678241729736e-01,-5.99603056907653809e-01,-6.63198888301849365e-01,-8.78458470106124878e-03,-5.84720194339752197e-01,-5.65800964832305908e-01,-8.78458470106124878e-03,1.51997298002243042e-01,-8.78458470106124878e-03,-8.78458470106124878e-03,1.51997298002243042e-01,1.51997298002243042e-01,3.44669133424758911e-01,1.51997298002243042e-01,3.44669133424758911e-01,5.65057158470153809e-01,4.69100534915924072e-01,3.44669133424758911e-01,5.14582872390747070e-01],"default_left":[true,true,true,true,true,true,true,true,false,true,true,true,true,true,true,true,true,true,true,true,true,true,true,false,false,true,true,true,true,true,true,false,false,true,true,true,true,false,false,false,false,false,false,false,false,false,false,false,false,false,false,false,false],"id":8,"leaf_child_counts":[0,0,0,0,0,0,0,0,0,0,0,0,0,0,0,0,0,0,0,0,0,0,0,0,0,0,0,0,0,0,0,0,0,0,0,0,0,0,0,0,0,0,0,0,0,0,0,0,0,0,0,0,0],"left_children":[1,3,5,7,9,11,13,15,-1,17,19,21,23,25,27,-1,31,-1,-1,37,39,41,43,-1,-1,45,47,49,51,-1,-1,-1,-1,-1,-1,-1,-1,-1,-1,-1,-1,-1,-1,-1,-1,-1,-1,-1,-1,-1,-1,-1,-1],"loss_changes":[6.49006103515625000e+02,3.75419403076171875e+02,1.94014221191406250e+02,3.97567749023437500e+01,1.61299087524414062e+02,1.72983818054199219e+01,5.13407592773437500e+01,2.65197753906250000e-01,0.00000000000000000e+00,1.53045654296875000e-01,1.49907272338867188e+02,1.64251041412353516e+01,1.08415241241455078e+01,3.63043518066406250e+01,1.31082763671875000e+01,5.62133789062500000e-02,1.18227005004882812e-01,5.33905029296875000e-02,4.18052673339843750e-02,3.57632446289062500e+01,7.45616149902343750e+01,8.46950340270996094e+00,1.36292228698730469e+01,0.00000000000000000e+00,0.00000000000000000e+00,7.70082092285156250e+00,5.33539733886718750e+01,2.39389038085937500e+00,1.27087173461914062e+01,0.00000000000000000e+00,0.00000000000000000e+00,0.00000000000000000e+00,0.00000000000000000e+00,0.00000000000000000e+00,0.00000000000000000e+00,0.00000000000000000e+00,0.00000000000000000e+00,0.00000000000000000e+00,0.00000000000000000e+00,0.00000000000000000e+00,0.00000000000000000e+00,0.00000000000000000e+00,0.00000000000000000e+00,0.00000000000000000e+00,0.00000000000000000e+00,0.00000000000000000e+00,0.00000000000000000e+00,0.00000000000000000e+00,0.00000000000000000e+00,0.00000000000000000e+00,0.00000000000000000e+00,0.00000000000000000e+00,0.00000000000000000e+00],"parents":[2147483647,0,0,1,1,2,2,3,3,4,4,5,5,6,6,7,7,9,9,10,10,11,11,12,12,13,13,14,14,15,15,16,16,17,17,18,18,19,19,20,20,21,21,22,22,25,25,26,26,27,27,28,28],"right_children":[2,4,6,8,10,12,14,16,-1,18,20,22,24,26,28,-1,32,-1,-1,38,40,42,44,-1,-1,46,48,50,52,-1,-1,-1,-1,-1,-1,-1,-1,-1,-1,-1,-1,-1,-1,-1,-1,-1,-1,-1,-1,-1,-1,-1,-1],"split_conditions":[4.70499992370605469e-01,5.24061381816864014e-01,3.99500012397766113e-01,9.62000012397766113e-01,1.08533948659896851e-01,7.40291476249694824e-01,9.12500023841857910e-01,6.02928958833217621e-02,-3.51383397355675697e-03,5.54905012249946594e-02,1.36389255523681641e-01,4.99999988824129105e-03,9.97626006603240967e-01,9.68528725206851959e-03,6.02928958833217621e-02,-2.21846222877502441e-01,5.34113585948944092e-01,-2.27514058351516724e-01,-2.52815067768096924e-01,6.08557820320129395e-01,1.88745215535163879e-01,2.43486404418945312e-01,9.30500030517578125e-01,-3.51383397355675697e-03,6.07989206910133362e-02,7.76031017303466797e-01,6.16885781288146973e-01,3.72613668441772461e-02,9.67499971389770508e-01,-2.21417695283889771e-01,-2.30747699737548828e-01,-2.71369069814682007e-01,-2.33105093240737915e-01,-2.24082395434379578e-01,-2.32865080237388611e-01,-2.39841222763061523e-01,-2.65279561281204224e-01,-3.51383397355675697e-03,-2.33888074755668640e-01,-2.26320385932922363e-01,-3.51383397355675697e-03,6.07989206910133362e-02,-3.51383397355675697e-03,-3.51383397355675697e-03,6.07989206910133362e-02,6.07989206910133362e-02,1.37867659330368042e-01,6.07989206910133362e-02,1.37867659330368042e-01,2.26022869348526001e-01,1.87640219926834106e-01,1.37867659330368042e-01,2.05833151936531067e-01],"split_indices":[18,3,7,7,5,3,7,1,0,1,5,11,19,1,1,1,4,11,3,3,5,2,16,0,0,19,3,1,7,2147483647,2147483647,0,0,2147483647,2147483647,2147483647,2147483647,0,0,0,0,0,0,0,0,0,0,0,0,0,0,0,0],"sum_hessian":[1.26460117187500000e+04,6.07800585937500000e+03,6.56800585937500000e+03,2.47234985351562500e+03,3.60565576171875000e+03,1.42699121093750000e+03,5.14101464843750000e+03,2.42298095703125000e+03,4.93689994812011719e+01,5.09895202636718750e+02,3.09576049804687500e+03,1.21992993164062500e+03,2.07061248779296875e+02,3.35197045898437500e+03,1.78904406738281250e+03,2.37078906250000000e+03,5.21919136047363281e+01,4.68141021728515625e+02,4.17541923522949219e+01,2.13469750976562500e+03,9.61063171386718750e+02,1.59525909423828125e+02,1.06040405273437500e+03,4.29437866210937500e+01,1.64117462158203125e+02,8.81636962890625000e+02,2.47033325195312500e+03,1.04886975097656250e+03,7.40174316406250000e+02,2.26192187500000000e+03,1.08867164611816406e+02,2.39797897338867188e+01,2.82121238708496094e+01,2.85250549316406250e+02,1.82890457153320312e+02,2.04690246582031250e+01,2.12851676940917969e+01,2.02688098144531250e+03,1.07816452026367188e+02,7.23468444824218750e+02,2.37594741821289062e+02,1.25286689758300781e+02,3.42392234802246094e+01,9.67663391113281250e+02,9.27406921386718750e+01,2.00654754638671875e+01,8.61571472167968750e+02,1.50242321777343750e+03,9.67910095214843750e+02,5.72465881347656250e+02,4.76403900146484375e+02,2.99745697021484375e+02,4.40428649902343750e+02],"tree_param":{"num_deleted":"6","num_feature":"21","num_nodes":"53","size_leaf_vector":"0"}},{"base_weights":[-2.30788103294798930e-07,-1.85323715209960938e-01,2.07718983292579651e-01,-5.62292754650115967e-01,-8.01417380571365356e-02,1.11976340413093567e-02,2.96614289283752441e-01,-5.47673940658569336e-01,-5.92036128044128418e-01,1.11976340413093567e-02,-2.74865001440048218e-01,1.11976340413093567e-02,1.53905957937240601e-01,5.06294131278991699e-01,2.33870357275009155e-01,-5.57920753955841064e-01,-5.46246647834777832e-01,-6.08158946037292480e-01,-5.70799708366394043e-01,1.11976340413093567e-02,-1.31833687424659729e-01,-5.63489437103271484e-01,-1.31833687424659729e-01,1.53905957937240601e-01,1.11976340413093567e-02,1.53905957937240601e-01,5.49785137176513672e-01,1.53905957937240601e-01,4.74153518676757812e-01,-5.77866315841674805e-01,-5.44475376605987549e-01,-5.39643585681915283e-01,-5.48579812049865723e-01,-6.30881905555725098e-01,-5.90871870517730713e-01,-5.99036455154418945e-01,-5.59275031089782715e-01,-1.31833687424659729e-01,1.11976340413093567e-02,1.11976340413093567e-02,-1.31833687424659729e-01,-5.46944677829742432e-01,-5.92097222805023193e-01,-3.47661554813385010e-01,-1.31833687424659729e-01,1.53905957937240601e-01,5.69437682628631592e-01,7.02084422111511230e-01,4.34705078601837158e-01,3.14029753208160400e-01,1.53905957937240601e-01,3.14029753208160400e-01,5.04227697849273682e-01],"default_left":[true,true,true,true,true,true,true,true,true,true,true,false,true,true,true,true,true,true,true,true,true,true,true,false,false,true,true,true,true,true,true,true,true,true,true,true,true,false,false,false,false,false,false,false,false,false,false,false,false,false,false,false,false],"id":9,"leaf_child_counts":[0,0,0,0,0,0,0,0,0,0,0,0,0,0,0,0,0,0,0,0,0,0,0,0,0,0,0,0,0,0,0,0,0,0,0,0,0,0,0,0,0,0,0,0,0,0,0,0,0,0,0,0,0],"left_children":[1,3,5,7,9,11,13,-1,17,19,21,-1,23,25,27,-1,-1,-1,-1,37,39,41,43,-1,-1,45,47,49,51,-1,-1,-1,-1,-1,-1,-1,-1,-1,-1,-1,-1,-1,-1,-1,-1,-1,-1,-1,-1,-1,-1,-1,-1],"loss_changes":[4.09736907958984375e+02,2.23039535522460938e+02,1.58246383666992188e+02,5.33264160156250000e-01,1.12220451354980469e+02,1.57250385284423828e+01,5.68589477539062500e+01,1.17340087890625000e-02,1.38107299804687500e-01,4.58417015075683594e+01,1.19110458374023438e+02,0.00000000000000000e+00,5.78750801086425781e+00,2.45117645263671875e+01,8.37626037597656250e+01,2.66494750976562500e-02,1.08337402343750000e-02,8.99200439453125000e-02,5.64613342285156250e-02,2.49106903076171875e+01,1.26156768798828125e+01,3.96789550781250000e-01,3.05719490051269531e+01,0.00000000000000000e+00,0.00000000000000000e+00,3.79273653030395508e+00,1.65642700195312500e+01,1.87436370849609375e+01,6.49816894531250000e+00,0.00000000000000000e+00,0.00000000000000000e+00,0.00000000000000000e+00,0.00000000000000000e+00,0.00000000000000000e+00,0.00000000000000000e+00,0.00000000000000000e+00,0.00000000000000000e+00,0.00000000000000000e+00,0.00000000000000000e+00,0.00000000000000000e+00,0.00000000000000000e+00,0.00000000000000000e+00,0.00000000000000000e+00,0.00000000000000000e+00,0.00000000000000000e+00,0.00000000000000000e+00,0.00000000000000000e+00,0.00000000000000000e+00,0.00000000000000000e+00,0.00000000000000000e+00,0.00000000000000000e+00,0.00000000000000000e+00,0.00000000000000000e+00],"parents":[2147483647,0,0,1,1,2,2,3,3,4,4,5,5,6,6,7,7,8,8,9,9,10,10,12,12,13,13,14,14,15,15,16,16,17,17,18,18,19,19,20,20,21,21,22,22,25,25,26,26,27,27,28,28],"right_children":[2,4,6,8,10,12,14,-1,18,20,22,-1,24,26,28,-1,-1,-1,-1,38,40,42,44,-1,-1,46,48,50,52,-1,-1,-1,-1,-1,-1,-1,-1,-1,-1,-1,-1,-1,-1,-1,-1,-1,-1,-1,-1,-1,-1,-1,-1],"split_conditions":[5.76499998569488525e-01,4.95789468288421631e-01,3.15000005066394806e-02,7.50000029802322388e-02,8.34500044584274292e-02,3.99367094039916992e-01,1.07239373028278351e-02,-2.19069585204124451e-01,5.50578474998474121e-01,1.78716611117124557e-02,3.55000019073486328e-01,4.47905389592051506e-03,4.00636941194534302e-01,1.16835713386535645e-01,9.44499969482421875e-01,-2.23168298602104187e-01,-2.18498662114143372e-01,-2.43263587355613708e-01,-2.28319883346557617e-01,1.67924414062500000e+04,5.28218150138854980e-02,1.49999996647238731e-02,1.49999996647238731e-02,6.15623854100704193e-02,4.47905389592051506e-03,9.44499969482421875e-01,1.21680378913879395e-01,7.88130313158035278e-02,3.27509909868240356e-01,-2.31146529316902161e-01,-2.17790156602859497e-01,-2.15857431292533875e-01,-2.19431921839714050e-01,-2.52352774143218994e-01,-2.36348748207092285e-01,-2.39614591002464294e-01,-2.23710015416145325e-01,-5.27334772050380707e-02,4.47905389592051506e-03,4.47905389592051506e-03,-5.27334772050380707e-02,-2.18777880072593689e-01,-2.36838892102241516e-01,-1.39064624905586243e-01,-5.27334772050380707e-02,6.15623854100704193e-02,2.27775081992149353e-01,2.80833780765533447e-01,1.73882037401199341e-01,1.25611901283264160e-01,6.15623854100704193e-02,1.25611901283264160e-01,2.01691076159477234e-01],"split_indices":[7,3,17,11,12,2,1,0,4,1,8,0,2,5,7,2147483647,2147483647,5,0,0,5,11,11,0,0,7,5,5,2,2147483647,2147483647,2147483647,2147483647,2147483647,2147483647,2147483647,2147483647,0,0,0,0,0,0,0,0,0,0,0,0,0,0,0,0],"sum_hessian":[1.06438291015625000e+04,5.62515966796875000e+03,5.01866992187500000e+03,1.22713610839843750e+03,4.39802343750000000e+03,6.96805480957031250e+02,4.32186425781250000e+03,8.22766418457031250e+02,4.04369628906250000e+02,2.57828466796875000e+03,1.81973864746093750e+03,5.44146301269531250e+02,1.52659164428710938e+02,9.95398803710937500e+02,3.32646557617187500e+03,1.00545051574707031e+02,7.22221374511718750e+02,2.29843399047851562e+02,1.74526229858398438e+02,1.95315563964843750e+03,6.25129150390625000e+02,8.39055541992187500e+02,9.80683166503906250e+02,1.23832679748535156e+02,2.88264808654785156e+01,5.02896270751953125e+01,9.45109191894531250e+02,2.30233813476562500e+03,1.02412744140625000e+03,4.04691963195800781e+01,6.00758552551269531e+01,1.88628707885742188e+02,5.33592651367187500e+02,9.92927246093750000e+01,1.30550689697265625e+02,5.05709838867187500e+01,1.23955253601074219e+02,1.50772613525390625e+02,1.80238293457031250e+03,1.42198120117187500e+02,4.82931030273437500e+02,5.31621948242187500e+02,3.07433563232421875e+02,2.21829299926757812e+02,7.58853820800781250e+02,2.83248271942138672e+01,2.19647998809814453e+01,4.06772827148437500e+02,5.38336364746093750e+02,4.33789215087890625e+02,1.86854882812500000e+03,1.18633453369140625e+02,9.05494018554687500e+02],"tree_param":{"num_deleted":"10","num_feature":"21","num_nodes":"53","size_leaf_vector":"0"}},{"base_weights":[-2.34638719120994210e-07,1.75424113869667053e-01,-1.76423594355583191e-01,1.12016119062900543e-01,4.01187211275100708e-01,-5.39475679397583008e-01,-3.34577411413192749e-02,2.56601661443710327e-01,3.81972058676183224e-03,5.03143370151519775e-01,2.95803606510162354e-01,-5.36750912666320801e-01,-6.44707024097442627e-01,-4.99740242958068848e-04,-2.86466717720031738e-01,-4.99740242958068848e-04,2.56601661443710327e-01,2.56601661443710327e-01,-4.99740242958068848e-04,4.29093062877655029e-01,5.84613978862762451e-01,2.56601661443710327e-01,4.88002687692642212e-01,-5.35300910472869873e-01,-5.59875667095184326e-01,-2.86466717720031738e-01,-4.99740242958068848e-04,-2.86466717720031738e-01,-4.99740242958068848e-04,-4.99740242958068848e-04,2.56601661443710327e-01,-4.99740242958068848e-04,2.56601661443710327e-01,-4.99740242958068848e-04,2.22706317901611328e-01,5.50041019916534424e-01,2.56601661443710327e-01,5.19128918647766113e-01,5.92255234718322754e-01,3.72302174568176270e-01,2.56601661443710327e-01,3.72302174568176270e-01,5.35134553909301758e-01,-5.29320895671844482e-01,-5.38800954818725586e-01,-5.83442986011505127e-01,-5.47588288784027100e-01,-4.99740242958068848e-04,-2.86466717720031738e-01,-1.43483221530914307e-01,-4.99740242958068848e-04],"default_left":[true,true,true,true,true,true,true,true,true,true,true,true,false,true,true,false,true,true,true,true,true,true,true,true,true,false,true,false,true,false,false,false,false,false,false,false,false,false,false,false,false,false,false,true,true,true,true,false,false,false,false],"id":10,"leaf_child_counts":[0,0,0,0,0,0,0,0,0,0,0,0,0,0,0,0,0,0,0,0,0,0,0,0,0,0,0,0,0,0,0,0,0,0,0,0,0,0,0,0,0,0,0,0,0,0,0,0,0,0,0],"left_children":[1,3,5,7,9,11,13,15,17,19,21,-1,-1,25,27,-1,29,31,33,35,37,39,41,-1,-1,-1,47,-1,49,-1,-1,-1,-1,-1,-1,-1,-1,-1,-1,-1,-1,-1,-1,-1,-1,-1,-1,-1,-1,-1,-1],"loss_changes":[2.85174224853515625e+02,6.61397094726562500e+01,2.38451843261718750e+02,8.05192871093750000e+01,1.08851623535156250e+01,3.71826171875000000e-01,8.93971710205078125e+01,2.84096069335937500e+01,3.45314941406250000e+01,3.10626220703125000e+00,1.21168861389160156e+01,4.21447753906250000e-02,0.00000000000000000e+00,4.72618331909179688e+01,7.05591964721679688e+01,0.00000000000000000e+00,2.04752960205078125e+01,1.93505783081054688e+01,2.20993270874023438e+01,1.00917396545410156e+01,1.22375488281250000e-01,1.79741132259368896e+00,2.50490188598632812e+00,2.46276855468750000e-02,2.87380218505859375e-02,0.00000000000000000e+00,4.03884620666503906e+01,0.00000000000000000e+00,1.40607051849365234e+01,0.00000000000000000e+00,0.00000000000000000e+00,0.00000000000000000e+00,0.00000000000000000e+00,0.00000000000000000e+00,0.00000000000000000e+00,0.00000000000000000e+00,0.00000000000000000e+00,0.00000000000000000e+00,0.00000000000000000e+00,0.00000000000000000e+00,0.00000000000000000e+00,0.00000000000000000e+00,0.00000000000000000e+00,0.00000000000000000e+00,0.00000000000000000e+00,0.00000000000000000e+00,0.00000000000000000e+00,0.00000000000000000e+00,0.00000000000000000e+00,0.00000000000000000e+00,0.00000000000000000e+00],"parents":[2147483647,0,0,1,1,2,2,3,3,4,4,5,5,6,6,7,7,8,8,9,9,10,10,11,11,13,13,14,14,16,16,17,17,18,18,19,19,20,20,21,21,22,22,23,23,24,24,26,26,28,28],"right_children":[2,4,6,8,10,12,14,16,18,20,22,-1,-1,26,28,-1,30,32,34,36,38,40,42,-1,-1,-1,48,-1,50,-1,-1,-1,-1,-1,-1,-1,-1,-1,-1,-1,-1,-1,-1,-1,-1,-1,-1,-1,-1,-1,-1],"split_conditions":[2.04499997198581696e-02,9.30500030517578125e-01,5.75000001117587090e-03,8.66176001727581024e-03,5.90727813541889191e-02,9.96850013732910156e-01,1.36386945843696594e-01,9.26896631717681885e-02,5.86088448762893677e-02,3.71265113353729248e-01,9.71500039100646973e-01,-2.14700371026992798e-01,-2.57882803678512573e-01,8.39718457031250000e+03,5.60127973556518555e-01,-1.99896094272844493e-04,1.11500002443790436e-01,4.26999986171722412e-01,8.73499989509582520e-01,3.72613668441772461e-02,6.87999963760375977e-01,4.68867063522338867e-01,8.22072029113769531e-02,-2.14120373129844666e-01,-2.23950266838073730e-01,-1.14586688578128815e-01,4.22198593750000000e+04,-1.14586688578128815e-01,4.16500002145767212e-01,-1.99896094272844493e-04,1.02640666067600250e-01,-1.99896094272844493e-04,1.02640666067600250e-01,-1.99896094272844493e-04,8.90825316309928894e-02,2.20016404986381531e-01,1.02640666067600250e-01,2.07651570439338684e-01,2.36902102828025818e-01,1.48920878767967224e-01,1.02640666067600250e-01,1.48920878767967224e-01,2.14053824543952942e-01,-2.11728364229202271e-01,-2.15520381927490234e-01,-2.33377203345298767e-01,-2.19035312533378601e-01,-1.99896094272844493e-04,-1.14586688578128815e-01,-5.73932901024818420e-02,-1.99896094272844493e-04],"split_indices":[12,7,13,1,1,12,5,5,5,2,7,12,0,0,19,0,18,7,18,1,16,3,1,2147483647,2147483647,0,0,0,7,0,0,0,0,0,0,0,0,0,0,0,0,0,0,2147483647,2147483647,2147483647,2147483647,0,0,0,0],"sum_hessian":[9.21433984375000000e+03,4.62025097656250000e+03,4.59408886718750000e+03,3.60714648437500000e+03,1.01310443115234375e+03,1.29797241210937500e+03,3.29611621093750000e+03,1.16693090820312500e+03,2.44021557617187500e+03,5.14923950195312500e+02,4.98180511474609375e+02,1.26521752929687500e+03,3.27549171447753906e+01,2.20268945312500000e+03,1.09342687988281250e+03,6.49179306030273438e+01,1.10201306152343750e+03,3.35289672851562500e+02,2.10492578125000000e+03,2.69749450683593750e+02,2.45174499511718750e+02,2.57594940185546875e+02,2.40585571289062500e+02,1.19058862304687500e+03,7.46289138793945312e+01,1.87232482910156250e+02,2.01545690917968750e+03,6.95840698242187500e+02,3.97586212158203125e+02,5.58760375976562500e+01,1.04613696289062500e+03,4.24907035827636719e+01,2.92798980712890625e+02,1.66135180664062500e+03,4.43574005126953125e+02,2.10409790039062500e+02,5.93396568298339844e+01,2.56263504028320312e+01,2.19548156738281250e+02,3.50440406799316406e+01,2.22550888061523438e+02,2.46404190063476562e+01,2.15945159912109375e+02,4.39624633789062500e+02,7.50963989257812500e+02,3.13519535064697266e+01,4.32769622802734375e+01,1.86156127929687500e+03,1.53895523071289062e+02,8.44960021972656250e+01,3.13090209960937500e+02],"tree_param":{"num_deleted":"6","num_feature":"21","num_nodes":"51","size_leaf_vector":"0"}},{"base_weights":[-1.54975253963129944e-07,-1.06845252215862274e-01,2.66358107328414917e-01,-2.31875628232955933e-01,4.75552603602409363e-02,3.29106062650680542e-01,7.97564238309860229e-02,7.97564238309860229e-02,-3.56282740831375122e-01,7.97564238309860229e-02,-2.71524012088775635e-01,7.97564238309860229e-02,3.71026217937469482e-01,7.97564238309860229e-02,4.56792145967483521e-01,-5.43937385082244873e-01,7.97564238309860229e-02,-4.62610244750976562e-01,1.72047521919012070e-02,7.97564238309860229e-02,-9.58837941288948059e-02,-5.91414034366607666e-01,-9.58837941288948059e-02,2.25391328334808350e-01,7.97564238309860229e-02,4.72544193267822266e-01,2.84980356693267822e-01,7.97564238309860229e-02,2.68274277448654175e-01,2.68274277448654175e-01,5.15178561210632324e-01,-5.35952627658843994e-01,-5.70674657821655273e-01,-2.32090473175048828e-01,7.97564238309860229e-02,-1.93594265729188919e-02,-5.64695656299591064e-01,-5.93828499317169189e-01,7.97564238309860229e-02,-9.58837941288948059e-02,7.97564238309860229e-02,-6.53951942920684814e-01,-5.64710199832916260e-01,3.51471543312072754e-01,5.49757897853851318e-01,2.25391328334808350e-01,6.03444635868072510e-01,1.00436821579933167e-01,7.97564238309860229e-02,3.91726434230804443e-01,5.43217599391937256e-01],"default_left":[true,true,true,true,true,true,true,true,true,true,true,true,true,true,true,true,true,true,true,true,false,true,false,false,false,true,true,true,false,false,true,true,true,false,false,false,false,false,false,false,false,false,false,false,false,false,false,true,true,false,false],"id":11,"leaf_child_counts":[0,0,0,0,0,0,0,0,0,0,0,0,0,0,0,0,0,0,0,0,0,0,0,0,0,0,0,0,0,0,0,0,0,0,0,0,0,0,0,0,0,0,0,0,0,0,0,0,0,0,0],"left_children":[1,3,5,7,9,11,13,15,17,19,21,23,25,27,29,-1,33,35,37,39,-1,41,-1,-1,-1,43,45,-1,-1,-1,49,-1,-1,-1,-1,-1,-1,-1,-1,-1,-1,-1,-1,-1,-1,-1,-1,-1,-1,-1,-1],"loss_changes":[2.32424530029296875e+02,1.12524269104003906e+02,3.89523773193359375e+01,1.29120269775390625e+02,7.83327789306640625e+01,2.72148132324218750e+01,3.17832183837890625e+01,5.02589912414550781e+01,9.22987976074218750e+01,2.82135238647460938e+01,9.68058929443359375e+01,1.28837642669677734e+01,1.51953277587890625e+01,2.97654724121093750e+00,4.18932342529296875e+00,2.72789001464843750e-02,2.54211177825927734e+01,8.18633728027343750e+01,8.53481521606445312e+01,1.57662963867187500e+01,0.00000000000000000e+00,7.95791625976562500e-01,0.00000000000000000e+00,0.00000000000000000e+00,0.00000000000000000e+00,7.46020507812500000e+00,2.24646987915039062e+01,1.44309997558593750e-02,0.00000000000000000e+00,0.00000000000000000e+00,1.06937026977539062e+00,0.00000000000000000e+00,0.00000000000000000e+00,0.00000000000000000e+00,0.00000000000000000e+00,0.00000000000000000e+00,0.00000000000000000e+00,0.00000000000000000e+00,0.00000000000000000e+00,0.00000000000000000e+00,0.00000000000000000e+00,0.00000000000000000e+00,0.00000000000000000e+00,0.00000000000000000e+00,0.00000000000000000e+00,0.00000000000000000e+00,0.00000000000000000e+00,0.00000000000000000e+00,0.00000000000000000e+00,0.00000000000000000e+00,0.00000000000000000e+00],"parents":[2147483647,0,0,1,1,2,2,3,3,4,4,5,5,6,6,7,7,8,8,9,9,10,10,11,11,12,12,13,13,14,14,15,15,16,16,17,17,18,18,19,19,21,21,25,25,26,26,27,27,30,30],"right_children":[2,4,6,8,10,12,14,16,18,20,22,24,26,28,30,-1,34,36,38,40,-1,42,-1,-1,-1,44,46,-1,-1,-1,50,-1,-1,-1,-1,-1,-1,-1,-1,-1,-1,-1,-1,-1,-1,-1,-1,-1,-1,-1,-1],"split_conditions":[7.99499988555908203e-01,5.61044573783874512e-01,7.41991996765136719e-02,5.37875480949878693e-03,8.34500044584274292e-02,3.68600010871887207e-01,9.67000007629394531e-01,4.94999997317790985e-02,8.58500003814697266e+00,6.76245570182800293e-01,9.97565507888793945e-01,1.52500001713633537e-02,3.58058623969554901e-02,2.22000007629394531e+01,9.99987483024597168e-01,-2.17574954032897949e-01,1.17586418986320496e-01,6.55000004917383194e-03,5.81499993801116943e-01,4.57229971885681152e-01,-3.83535176515579224e-02,8.52492973208427429e-02,-3.83535176515579224e-02,9.01565328240394592e-02,3.19025702774524689e-02,8.73499989509582520e-01,7.26539567112922668e-02,3.19025702774524689e-02,1.07309713959693909e-01,1.07309713959693909e-01,6.05000019073486328e-01,-2.14381054043769836e-01,-2.28269860148429871e-01,-9.28361937403678894e-02,3.19025702774524689e-02,-7.74377072229981422e-03,-2.25878268480300903e-01,-2.37531408667564392e-01,3.19025702774524689e-02,-3.83535176515579224e-02,3.19025702774524689e-02,-2.61580795049667358e-01,-2.25884079933166504e-01,1.40588626265525818e-01,2.19903156161308289e-01,9.01565328240394592e-02,2.41377860307693481e-01,4.01747301220893860e-02,3.19025702774524689e-02,1.56690582633018494e-01,2.17287048697471619e-01],"split_indices":[7,3,1,1,12,13,7,16,11,3,19,12,1,11,20,2,5,12,7,4,0,5,0,0,0,7,1,2,0,0,8,2147483647,2147483647,0,0,0,0,0,0,0,0,0,0,0,0,0,0,2147483647,2147483647,0,0],"sum_hessian":[8.16697265625000000e+03,5.82883496093750000e+03,2.33813769531250000e+03,3.22074267578125000e+03,2.60809228515625000e+03,1.93592700195312500e+03,4.02210662841796875e+02,8.96539367675781250e+02,2.32420336914062500e+03,1.95137927246093750e+03,6.56712951660156250e+02,1.96360351562500000e+02,1.73956665039062500e+03,1.78631652832031250e+02,2.23578994750976562e+02,1.29201492309570312e+02,7.67337890625000000e+02,1.80915722656250000e+03,5.15046020507812500e+02,1.83901062011718750e+03,1.12368675231933594e+02,4.76745422363281250e+02,1.79967575073242188e+02,8.35536651611328125e+01,1.12806686401367188e+02,7.98033020019531250e+02,9.41533569335937500e+02,1.55958099365234375e+02,2.26735591888427734e+01,2.45174217224121094e+01,1.99061584472656250e+02,9.95062561035156250e+01,2.96952419281005859e+01,7.21794281005859375e+01,6.95158447265625000e+02,3.38669403076171875e+02,1.47048779296875000e+03,1.92549545288085938e+02,3.22496490478515625e+02,7.79343490600585938e+01,1.76107629394531250e+03,1.42649536132812500e+02,3.34095886230468750e+02,3.10760253906250000e+02,4.87272766113281250e+02,7.60963500976562500e+02,1.80570083618164062e+02,3.37584495544433594e+01,1.22199645996093750e+02,2.02650794982910156e+01,1.78796493530273438e+02],"tree_param":{"num_deleted":"4","num_feature":"21","num_nodes":"51","size_leaf_vector":"0"}},{"base_weights":[-2.49117391604158911e-07,-6.75012171268463135e-02,2.68180310726165771e-01,-1.94303035736083984e-01,7.74889662861824036e-02,3.53593111038208008e-01,1.00339546799659729e-01,-4.42375212907791138e-01,-3.35691086947917938e-02,1.00339546799659729e-01,-8.99474799633026123e-01,1.00339546799659729e-01,3.93895000219345093e-01,1.00339546799659729e-01,4.32796895503997803e-01,-5.35943806171417236e-01,-2.37972155213356018e-01,-2.37972155213356018e-01,9.06583815813064575e-02,-5.71715414524078369e-01,1.00339546799659729e-01,-8.13811182975769043e-01,-1.03622448444366455e+00,5.25485157966613770e-01,3.16839843988418579e-01,2.57069289684295654e-01,1.00339546799659729e-01,2.66568213701248169e-01,5.01599371433258057e-01,-5.32226383686065674e-01,-5.57260453701019287e-01,-2.37972155213356018e-01,-5.36864578723907471e-01,1.00339546799659729e-01,-1.94561421871185303e-01,-5.44175088405609131e-01,-6.79359614849090576e-01,1.00339546799659729e-01,-1.75242751836776733e-01,-9.20728087425231934e-01,-7.20204293727874756e-01,5.46397030353546143e-01,2.47117280960083008e-01,2.47117280960083008e-01,5.42557895183563232e-01,1.00339546799659729e-01,2.66568213701248169e-01,3.84083807468414307e-01,5.33609569072723389e-01],"default_left":[true,true,true,true,true,true,true,true,true,true,true,false,true,true,true,true,true,false,true,true,true,true,false,true,true,false,true,false,true,true,true,false,false,false,false,false,false,false,false,false,false,false,false,false,false,false,false,false,false],"id":12,"leaf_child_counts":[0,0,0,0,0,0,0,0,0,0,0,0,0,0,0,0,0,0,0,0,0,0,0,0,0,0,0,0,0,0,0,0,0,0,0,0,0,0,0,0,0,0,0,0,0,0,0,0,0],"left_children":[1,3,5,7,9,11,13,15,17,19,21,-1,23,25,27,-1,31,-1,33,35,37,39,-1,41,43,-1,45,-1,47,-1,-1,-1,-1,-1,-1,-1,-1,-1,-1,-1,-1,-1,-1,-1,-1,-1,-1,-1,-1],"loss_changes":[1.27924697875976562e+02,1.03796119689941406e+02,3.06748733520507812e+01,1.20089347839355469e+02,6.93393249511718750e+01,2.03969573974609375e+01,1.92937088012695312e+01,3.57937622070312500e+01,8.96541671752929688e+01,6.06845703125000000e+01,8.27850341796875000e-01,0.00000000000000000e+00,1.07193756103515625e+01,7.44056701660156250e-01,3.65592193603515625e+00,7.58056640625000000e-02,1.21998081207275391e+01,0.00000000000000000e+00,5.13481903076171875e+01,3.97945404052734375e-01,3.67842407226562500e+01,4.34684753417968750e-01,0.00000000000000000e+00,2.66996765136718750e+00,1.30629043579101562e+01,0.00000000000000000e+00,6.42930984497070312e-01,0.00000000000000000e+00,8.59355926513671875e-01,0.00000000000000000e+00,0.00000000000000000e+00,0.00000000000000000e+00,0.00000000000000000e+00,0.00000000000000000e+00,0.00000000000000000e+00,0.00000000000000000e+00,0.00000000000000000e+00,0.00000000000000000e+00,0.00000000000000000e+00,0.00000000000000000e+00,0.00000000000000000e+00,0.00000000000000000e+00,0.00000000000000000e+00,0.00000000000000000e+00,0.00000000000000000e+00,0.00000000000000000e+00,0.00000000000000000e+00,0.00000000000000000e+00,0.00000000000000000e+00],"parents":[2147483647,0,0,1,1,2,2,3,3,4,4,5,5,6,6,7,7,8,8,9,9,10,10,12,12,13,13,14,14,15,15,16,16,18,18,19,19,20,20,21,21,23,23,24,24,26,26,28,28],"right_children":[2,4,6,8,10,12,14,16,18,20,22,-1,24,26,28,-1,32,-1,34,36,38,40,-1,42,44,-1,46,-1,48,-1,-1,-1,-1,-1,-1,-1,-1,-1,-1,-1,-1,-1,-1,-1,-1,-1,-1,-1,-1],"split_conditions":[8.65499973297119141e-01,5.61044573783874512e-01,7.41991996765136719e-02,5.16500044614076614e-03,7.19837546348571777e-02,3.68250012397766113e-01,9.67000007629394531e-01,8.19593515625000000e+04,1.17590390145778656e-01,4.57240521907806396e-01,1.05175097656250000e+04,4.01358194649219513e-02,3.50985229015350342e-02,3.04554879665374756e-01,5.55000007152557373e-01,-2.14377522468566895e-01,8.19756875000000000e+04,-9.51888635754585266e-02,1.49319302290678024e-02,1.34999990463256836e-01,8.34500044584274292e-02,7.25955218076705933e-02,-4.14489805698394775e-01,5.62477827072143555e-01,3.98979604244232178e-01,1.02827720344066620e-01,6.64912283420562744e-01,1.06627285480499268e-01,9.99990522861480713e-01,-2.12890550494194031e-01,-2.22904190421104431e-01,-9.51888635754585266e-02,-2.14745834469795227e-01,4.01358194649219513e-02,-7.78245702385902405e-02,-2.17670038342475891e-01,-2.71743863821029663e-01,4.01358194649219513e-02,-7.00971037149429321e-02,-3.68291229009628296e-01,-2.88081735372543335e-01,2.18558818101882935e-01,9.88469123840332031e-02,9.88469123840332031e-02,2.17023164033889771e-01,4.01358194649219513e-02,1.06627285480499268e-01,1.53633520007133484e-01,2.13443830609321594e-01],"split_indices":[7,3,1,20,1,13,7,0,5,4,0,0,1,2,8,3,0,0,1,11,12,5,0,4,2,0,4,0,20,2147483647,2147483647,0,0,0,0,0,0,0,0,0,0,0,0,0,0,0,0,0,0],"sum_hessian":[7.06670507812500000e+03,5.64568798828125000e+03,1.42101708984375000e+03,3.01174902343750000e+03,2.63393896484375000e+03,1.10240966796875000e+03,3.18607452392578125e+02,1.18415539550781250e+03,1.82759350585937500e+03,2.56319921875000000e+03,7.07398986816406250e+01,4.52261199951171875e+01,1.05718359375000000e+03,1.44048706054687500e+02,1.74558746337890625e+02,9.60370422363281250e+02,2.23785018920898438e+02,2.90416229248046875e+02,1.53717724609375000e+03,1.34358627319335938e+02,2.42884057617187500e+03,4.34983291625976562e+01,2.72415695190429688e+01,3.90428192138671875e+02,6.66755371093750000e+02,3.02896938323974609e+01,1.13759010314941406e+02,2.10572414398193359e+01,1.53501495361328125e+02,8.17782592773437500e+02,1.42587829589843750e+02,8.72254867553710938e+01,1.36559539794921875e+02,9.45085632324218750e+02,5.92091613769531250e+02,1.06991386413574219e+02,2.73672504425048828e+01,1.94449145507812500e+03,4.84349029541015625e+02,2.03014144897460938e+01,2.31969146728515625e+01,3.67582702636718750e+02,2.28454685211181641e+01,4.79963775634765625e+02,1.86791625976562500e+02,9.37307510375976562e+01,2.00282592773437500e+01,2.02453231811523438e+01,1.33256179809570312e+02],"tree_param":{"num_deleted":"2","num_feature":"21","num_nodes":"49","size_leaf_vector":"0"}},{"base_weights":[-2.75567828111888957e-07,-1.91614076495170593e-01,7.56508633494377136e-02,-5.04891157150268555e-01,1.12809024751186371e-01,-5.59585988521575928e-01,9.65678170323371887e-02,-5.34709513187408447e-01,-1.96041062474250793e-01,2.60614693164825439e-01,-1.96041062474250793e-01,-5.43846011161804199e-01,-6.53591334819793701e-01,8.64576280117034912e-01,8.17031487822532654e-02,-5.30848145484924316e-01,-6.38920664787292480e-01,-1.96041062474250793e-01,3.72099965810775757e-01,-1.96041062474250793e-01,3.49053978919982910e-01,-5.31704187393188477e-01,-5.94153165817260742e-01,1.26262113451957703e-01,-3.04915815591812134e-01,-5.36984622478485107e-01,-5.24282693862915039e-01,-1.96041062474250793e-01,5.32625377178192139e-01,-1.96041062474250793e-01,4.20295834541320801e-01,-1.96041062474250793e-01,-1.19861222803592682e-01,6.73801481723785400e-01,5.13569451868534088e-02,-5.28159737586975098e-01,-5.42700469493865967e-01,-4.46433246135711670e-01,1.61659270524978638e-01,5.02345025539398193e-01,-4.98755186796188354e-01],"default_left":[true,true,true,true,true,true,true,true,false,true,true,true,false,false,true,true,false,true,true,true,true,true,true,true,true,true,true,false,false,false,false,false,false,false,false,true,true,false,false,false,false],"id":13,"leaf_child_counts":[0,0,0,0,0,0,0,0,0,0,0,0,0,0,0,0,0,0,0,0,0,0,0,0,0,0,0,0,0,0,0,0,0,0,0,0,0,0,0,0,0],"left_children":[1,3,5,7,9,11,13,15,-1,17,19,-1,-1,-1,23,-1,-1,27,29,31,33,-1,-1,37,39,-1,-1,-1,-1,-1,-1,-1,-1,-1,-1,-1,-1,-1,-1,-1,-1],"loss_changes":[9.06373519897460938e+01,1.68789260864257812e+02,5.95640563964843750e+01,1.39658813476562500e+01,5.44256973266601562e+01,2.11093902587890625e-01,4.95450782775878906e+01,3.40576171875000000e-01,0.00000000000000000e+00,3.45439987182617188e+01,2.74562091827392578e+01,7.44552612304687500e-02,0.00000000000000000e+00,0.00000000000000000e+00,7.33454208374023438e+01,3.26232910156250000e-02,0.00000000000000000e+00,1.83132019042968750e+01,2.17705078125000000e+01,1.35784149169921875e-01,8.93336963653564453e+00,3.55529785156250000e-03,0.00000000000000000e+00,7.73880157470703125e+01,6.88479309082031250e+01,0.00000000000000000e+00,0.00000000000000000e+00,0.00000000000000000e+00,0.00000000000000000e+00,0.00000000000000000e+00,0.00000000000000000e+00,0.00000000000000000e+00,0.00000000000000000e+00,0.00000000000000000e+00,0.00000000000000000e+00,0.00000000000000000e+00,0.00000000000000000e+00,0.00000000000000000e+00,0.00000000000000000e+00,0.00000000000000000e+00,0.00000000000000000e+00],"parents":[2147483647,0,0,1,1,2,2,3,3,4,4,5,5,6,6,7,7,9,9,10,10,11,11,14,14,15,15,17,17,18,18,19,19,20,20,21,21,23,23,24,24],"right_children":[2,4,6,8,10,12,14,16,-1,18,20,-1,-1,-1,24,-1,-1,28,30,32,34,-1,-1,38,40,-1,-1,-1,-1,-1,-1,-1,-1,-1,-1,-1,-1,-1,-1,-1,-1],"split_conditions":[5.24061381816864014e-01,4.70499992370605469e-01,4.44891124963760376e-01,9.62000012397766113e-01,2.00502499938011169e-02,3.35000008344650269e-01,4.44894194602966309e-01,5.86670860648155212e-02,-7.84164294600486755e-02,1.36272609233856201e-01,2.60900898437500000e+04,-2.17538401484489441e-01,-2.61436551809310913e-01,3.45830529928207397e-01,4.22132500000000000e+04,-2.12339267134666443e-01,-2.55568265914916992e-01,8.34499955177307129e-01,4.29921448230743408e-01,9.99949991703033447e-01,8.49999953061342239e-04,-2.12681680917739868e-01,-2.37661272287368774e-01,4.94827508926391602e-01,4.57331538200378418e-01,-2.14793846011161804e-01,-2.09713086485862732e-01,-7.84164294600486755e-02,2.13050156831741333e-01,-7.84164294600486755e-02,1.68118342757225037e-01,-7.84164294600486755e-02,-4.79444898664951324e-02,2.69520610570907593e-01,2.05427780747413635e-02,-2.11263895034790039e-01,-2.17080190777778625e-01,-1.78573295474052429e-01,6.46637082099914551e-02,2.00938016176223755e-01,-1.99502080678939819e-01],"split_indices":[3,18,4,7,1,11,4,1,0,5,0,5,0,0,0,0,0,7,3,13,12,2147483647,2147483647,4,4,2147483647,2147483647,0,0,0,0,0,0,0,0,2147483647,2147483647,0,0,0,0],"sum_hessian":[6.25265966796875000e+03,1.76985693359375000e+03,4.48280273437500000e+03,8.72243774414062500e+02,8.97613159179687500e+02,1.42902542114257812e+02,4.33990039062500000e+03,8.47174682617187500e+02,2.50690937042236328e+01,6.71579528808593750e+02,2.26033615112304688e+02,1.22412895202636719e+02,2.04896488189697266e+01,8.24020309448242188e+01,4.25749804687500000e+03,8.16911376953125000e+02,3.02633514404296875e+01,1.30687515258789062e+02,5.40892028808593750e+02,1.33629348754882812e+02,9.24042663574218750e+01,9.86217422485351562e+01,2.37911510467529297e+01,3.81751879882812500e+03,4.39979461669921875e+02,4.22207611083984375e+02,3.94703735351562500e+02,9.61973571777343750e+01,3.44901542663574219e+01,2.39749164581298828e+01,5.16917114257812500e+02,1.10226463317871094e+02,2.34028816223144531e+01,4.41936569213867188e+01,4.82106094360351562e+01,7.46188125610351562e+01,2.40029296875000000e+01,2.22217651367187500e+02,3.59530102539062500e+03,8.51913070678710938e+01,3.54788177490234375e+02],"tree_param":{"num_deleted":"6","num_feature":"21","num_nodes":"41","size_leaf_vector":"0"}},{"base_weights":[-3.44939792285003932e-07,-2.06651747226715088e-01,5.85357509553432465e-02,-5.21824538707733154e-01,3.80628332495689392e-02,9.20110195875167847e-02,-3.67986232042312622e-01,-5.20871579647064209e-01,-5.44578850269317627e-01,2.85607397556304932e-01,-2.39899441599845886e-01,2.84728445112705231e-02,3.42271417379379272e-01,-6.62930846214294434e-01,3.32589358091354370e-01,-5.23010790348052979e-01,-5.17059385776519775e-01,-2.75574792176485062e-02,4.54572081565856934e-01,3.03374469280242920e-01,-2.41880849003791809e-01,7.78634175658226013e-02,-4.23982977867126465e-01,-4.65854376554489136e-01,3.73689174652099609e-01,-7.81768202781677246e-01,5.25933802127838135e-01,5.60073733329772949e-01,-2.08075214177370071e-02,-5.21486937999725342e-01,-5.28126835823059082e-01,-5.15500724315643311e-01,-5.28923690319061279e-01,2.13507294654846191e-01,-2.41880849003791809e-01,2.81984627246856689e-01,6.74452900886535645e-01,-2.41880849003791809e-01,5.53366959095001221e-01,-2.41880849003791809e-01,1.95453628897666931e-01,-1.26938417553901672e-01,1.78835451602935791e-01,-5.64747452735900879e-01,-1.73059776425361633e-01,6.01285874843597412e-01,2.84098982810974121e-01,-2.59014874696731567e-01,-8.74179184436798096e-01,4.60316359996795654e-01,6.24584734439849854e-01],"default_left":[true,true,true,true,true,true,true,true,true,true,true,true,true,true,true,true,true,true,true,true,true,true,true,false,true,true,false,true,false,true,true,true,true,false,false,false,false,false,false,false,false,false,false,false,false,false,false,false,false,false,false],"id":14,"leaf_child_counts":[0,0,0,0,0,0,0,0,0,0,0,0,0,0,0,0,0,0,0,0,0,0,0,0,0,0,0,0,0,0,0,0,0,0,0,0,0,0,0,0,0,0,0,0,0,0,0,0,0,0,0],"left_children":[1,3,5,-1,9,11,13,-1,-1,17,19,21,23,25,27,-1,-1,33,35,37,39,41,43,-1,45,47,-1,49,-1,-1,-1,-1,-1,-1,-1,-1,-1,-1,-1,-1,-1,-1,-1,-1,-1,-1,-1,-1,-1,-1,-1],"loss_changes":[6.74337005615234375e+01,9.49061279296875000e+01,6.20248832702636719e+01,1.13677978515625000e-02,4.76622047424316406e+01,6.40491333007812500e+01,6.53230285644531250e+01,3.95202636718750000e-03,0.00000000000000000e+00,1.93870391845703125e+01,3.53736991882324219e+01,7.17874069213867188e+01,2.07075195312500000e+01,3.14315567016601562e+01,7.52970218658447266e+00,2.30407714843750000e-03,3.16238403320312500e-03,2.89639530181884766e+01,9.03106689453125000e+00,1.83207206726074219e+01,4.06696319580078125e+00,5.98919448852539062e+01,2.29195709228515625e+01,0.00000000000000000e+00,1.60076675415039062e+01,9.77033996582031250e+00,0.00000000000000000e+00,3.66418838500976562e-01,0.00000000000000000e+00,0.00000000000000000e+00,0.00000000000000000e+00,0.00000000000000000e+00,0.00000000000000000e+00,0.00000000000000000e+00,0.00000000000000000e+00,0.00000000000000000e+00,0.00000000000000000e+00,0.00000000000000000e+00,0.00000000000000000e+00,0.00000000000000000e+00,0.00000000000000000e+00,0.00000000000000000e+00,0.00000000000000000e+00,0.00000000000000000e+00,0.00000000000000000e+00,0.00000000000000000e+00,0.00000000000000000e+00,0.00000000000000000e+00,0.00000000000000000e+00,0.00000000000000000e+00,0.00000000000000000e+00],"parents":[2147483647,0,0,1,1,2,2,3,3,4,4,5,5,6,6,7,7,9,9,10,10,11,11,12,12,13,13,14,14,15,15,16,16,17,17,18,18,19,19,20,20,21,21,22,22,24,24,25,25,27,27],"right_children":[2,4,6,-1,10,12,14,-1,-1,18,20,22,24,26,28,-1,-1,34,36,38,40,42,44,-1,46,48,-1,50,-1,-1,-1,-1,-1,-1,-1,-1,-1,-1,-1,-1,-1,-1,-1,-1,-1,-1,-1,-1,-1,-1,-1],"split_conditions":[5.13788819313049316e-01,3.64499986171722412e-01,1.37449998855590820e+01,-2.08729818463325500e-01,5.06929278373718262e-01,5.50500011444091797e+00,6.55105590820312500e-01,-2.08348631858825684e-01,-2.17831537127494812e-01,5.72499990463256836e-01,6.68903812766075134e-03,2.36250013113021851e-01,7.84954003906250000e+03,9.75000023841857910e-01,6.78006494140625000e+03,-2.09204316139221191e-01,-2.06823751330375671e-01,4.99999988824129105e-03,2.59929960937500000e+04,8.19000005722045898e-01,9.41500008106231689e-01,5.32658219337463379e-01,9.99981999397277832e-01,-1.86341747641563416e-01,5.27055144309997559e-01,2.31752498075366020e-03,2.10373520851135254e-01,7.84999966621398926e-01,-8.32300912588834763e-03,-2.08594784140586853e-01,-2.11250737309455872e-01,-2.06200286746025085e-01,-2.11569473147392273e-01,8.54029208421707153e-02,-9.67523381114006042e-02,1.12793855369091034e-01,2.69781172275543213e-01,-9.67523381114006042e-02,2.21346780657768250e-01,-9.67523381114006042e-02,7.81814530491828918e-02,-5.07753677666187286e-02,7.15341791510581970e-02,-2.25898981094360352e-01,-6.92239105701446533e-02,2.40514352917671204e-01,1.13639593124389648e-01,-1.03605948388576508e-01,-3.49671691656112671e-01,1.84126541018486023e-01,2.49833896756172180e-01],"split_indices":[3,18,11,1,4,11,4,2147483647,2147483647,7,1,12,0,7,0,2147483647,2147483647,11,0,18,7,4,20,0,3,1,0,8,0,2147483647,2147483647,2147483647,2147483647,0,0,0,0,0,0,0,0,0,0,0,0,0,0,0,0,0,0],"sum_hessian":[5.57461328125000000e+03,1.23051037597656250e+03,4.34410302734375000e+03,5.37828796386718750e+02,6.92681518554687500e+02,4.02797143554687500e+03,3.16131622314453125e+02,5.16232360839843750e+02,2.15964088439941406e+01,3.66387878417968750e+02,3.26293670654296875e+02,3.21238574218750000e+03,8.15585876464843750e+02,2.22470764160156250e+02,9.36608734130859375e+01,3.30585113525390625e+02,1.85647247314453125e+02,1.28402725219726562e+02,2.37985153198242188e+02,1.18985351562500000e+02,2.07308334350585938e+02,2.89623071289062500e+03,3.16154907226562500e+02,3.05206909179687500e+01,7.85065185546875000e+02,2.02254058837890625e+02,2.02167053222656250e+01,5.69810981750488281e+01,3.66797752380371094e+01,2.54795928955078125e+02,7.57891921997070312e+01,1.64128768920898438e+02,2.15184860229492188e+01,6.27778701782226562e+01,6.56248550415039062e+01,1.33332748413085938e+02,1.04652397155761719e+02,3.40809173583984375e+01,8.49044342041015625e+01,1.86045135498046875e+02,2.12631912231445312e+01,9.56387390136718750e+02,1.93984338378906250e+03,2.79139648437500000e+02,3.70152473449707031e+01,2.21741897583007812e+02,5.63323303222656250e+02,3.03835086822509766e+01,1.71870544433593750e+02,2.23806457519531250e+01,3.46004524230957031e+01],"tree_param":{"num_deleted":"8","num_feature":"21","num_nodes":"51","size_leaf_vector":"0"}},{"base_weights":[-3.17876867939048680e-07,-4.41470891237258911e-02,2.56577908992767334e-01,-3.00180047750473022e-01,1.24815506860613823e-02,1.58392116427421570e-01,5.77706634998321533e-01,-6.03781081736087799e-03,-5.05794823169708252e-01,1.06215409934520721e-01,-1.35837510228157043e-01,1.06215409934520721e-01,4.48116153478622437e-01,3.55594962835311890e-01,6.83957040309906006e-01,-6.21917486190795898e-01,1.06215409934520721e-01,-6.05200707912445068e-01,1.06215409934520721e-01,1.06215409934520721e-01,-4.34241801500320435e-01,-4.06043648719787598e-01,8.90030190348625183e-02,1.06215409934520721e-01,2.77165770530700684e-01,2.77165770530700684e-01,5.24221777915954590e-01,5.19775986671447754e-01,7.35668957233428955e-01,-5.74410438537597656e-01,-6.43943071365356445e-01,-2.57851034402847290e-01,1.06215409934520721e-01,-7.23960816860198975e-01,-2.49492645263671875e-01,-1.18814140558242798e-01,1.06215409934520721e-01,-2.91146859526634216e-02,-8.25662374496459961e-01,-5.31592607498168945e-01,-1.58520311117172241e-01,1.06215409934520721e-01,-1.58520311117172241e-01,1.91690593957901001e-01,1.06215409934520721e-01,2.77165770530700684e-01,1.91690593957901001e-01,6.00477755069732666e-01,4.63693588972091675e-01,7.77638137340545654e-01,6.99321329593658447e-01],"default_left":[true,true,true,true,true,true,true,true,true,true,true,true,true,false,true,true,true,true,false,true,true,true,true,true,true,false,true,false,true,false,false,false,false,false,false,false,false,false,false,false,false,false,false,false,false,false,false,false,false,false,false],"id":15,"leaf_child_counts":[0,0,0,0,0,0,0,0,0,0,0,0,0,0,0,0,0,0,0,0,0,0,0,0,0,0,0,0,0,0,0,0,0,0,0,0,0,0,0,0,0,0,0,0,0,0,0,0,0,0,0],"left_children":[1,3,5,7,9,11,13,15,17,19,21,23,25,-1,27,29,31,33,-1,35,37,39,41,43,45,-1,47,-1,49,-1,-1,-1,-1,-1,-1,-1,-1,-1,-1,-1,-1,-1,-1,-1,-1,-1,-1,-1,-1,-1,-1],"loss_changes":[5.65788345336914062e+01,6.17899055480957031e+01,2.31201591491699219e+01,4.66829986572265625e+01,5.72342872619628906e+01,1.61442337036132812e+01,4.05180358886718750e+00,4.90423889160156250e+01,3.75535964965820312e+01,4.05470962524414062e+01,9.11422576904296875e+01,1.10583992004394531e+01,3.00013351440429688e+00,0.00000000000000000e+00,1.27708053588867188e+00,1.04320526123046875e-01,1.29374895095825195e+01,1.77255554199218750e+01,0.00000000000000000e+00,2.91760520935058594e+01,2.20126190185546875e+01,3.53615798950195312e+01,2.29244079589843750e+01,3.58828258514404297e+00,4.59609985351562500e-01,0.00000000000000000e+00,5.60710906982421875e-01,0.00000000000000000e+00,1.43726348876953125e-01,0.00000000000000000e+00,0.00000000000000000e+00,0.00000000000000000e+00,0.00000000000000000e+00,0.00000000000000000e+00,0.00000000000000000e+00,0.00000000000000000e+00,0.00000000000000000e+00,0.00000000000000000e+00,0.00000000000000000e+00,0.00000000000000000e+00,0.00000000000000000e+00,0.00000000000000000e+00,0.00000000000000000e+00,0.00000000000000000e+00,0.00000000000000000e+00,0.00000000000000000e+00,0.00000000000000000e+00,0.00000000000000000e+00,0.00000000000000000e+00,0.00000000000000000e+00,0.00000000000000000e+00],"parents":[2147483647,0,0,1,1,2,2,3,3,4,4,5,5,6,6,7,7,8,8,9,9,10,10,11,11,12,12,14,14,15,15,16,16,17,17,19,19,20,20,21,21,22,22,23,23,24,24,26,26,28,28],"right_children":[2,4,6,8,10,12,14,16,18,20,22,24,26,-1,28,30,32,34,-1,36,38,40,42,44,46,-1,48,-1,50,-1,-1,-1,-1,-1,-1,-1,-1,-1,-1,-1,-1,-1,-1,-1,-1,-1,-1,-1,-1,-1,-1],"split_conditions":[7.95000016689300537e-01,1.04386359453201294e-01,5.08504271507263184e-01,7.23109394311904907e-02,1.36386945843696594e-01,9.47999954223632812e-01,9.98650014400482178e-01,2.31499999761581421e-01,9.49499964714050293e-01,5.97245931625366211e-01,4.70499992370605469e-01,9.25000011920928955e-01,3.75170171260833740e-01,1.42237991094589233e-01,2.24364902343750000e+04,3.90195190906524658e-01,9.88499999046325684e-01,1.15249996185302734e+01,4.24861647188663483e-02,3.22667241096496582e-01,2.35757306218147278e-02,3.74113291501998901e-01,5.41588105261325836e-02,7.85824842751026154e-03,5.15258759260177612e-02,1.10866308212280273e-01,3.96942108869552612e-01,2.07910403609275818e-01,5.13765215873718262e-01,-2.29764178395271301e-01,-2.57577240467071533e-01,-1.03140413761138916e-01,4.24861647188663483e-02,-2.89584338665008545e-01,-9.97970625758171082e-02,-4.75256554782390594e-02,4.24861647188663483e-02,-1.16458749398589134e-02,-3.30264955759048462e-01,-2.12637051939964294e-01,-6.34081289172172546e-02,4.24861647188663483e-02,-6.34081289172172546e-02,7.66762420535087585e-02,4.24861647188663483e-02,1.10866308212280273e-01,7.66762420535087585e-02,2.40191102027893066e-01,1.85477435588836670e-01,3.11055272817611694e-01,2.79728531837463379e-01],"split_indices":[8,5,2,5,5,7,19,7,7,4,18,8,2,0,0,2,17,11,0,2,1,2,1,1,1,0,2,0,2,0,0,0,0,0,0,0,0,0,0,0,0,0,0,0,0,0,0,0,0,0,0],"sum_hessian":[4.99499560546875000e+03,4.26172509765625000e+03,7.33270324707031250e+02,7.71874328613281250e+02,3.48985083007812500e+03,5.61570495605468750e+02,1.71699859619140625e+02,3.17572296142578125e+02,4.54302062988281250e+02,1.98964965820312500e+03,1.50020117187500000e+03,4.10385345458984375e+02,1.51185119628906250e+02,5.55595283508300781e+01,1.16140327453613281e+02,1.00048637390136719e+02,2.17523651123046875e+02,4.10412872314453125e+02,4.38891754150390625e+01,1.85083532714843750e+03,1.38814254760742188e+02,6.81361694335937500e+02,8.18839538574218750e+02,3.07183319091796875e+02,1.03202033996582031e+02,2.96447525024414062e+01,1.21540367126464844e+02,2.15690937042236328e+01,9.45712356567382812e+01,3.17005481719970703e+01,6.83480911254882812e+01,2.98726825714111328e+01,1.87650970458984375e+02,3.09409851074218750e+02,1.01003036499023438e+02,5.76164855957031250e+02,1.27467053222656250e+03,6.82133407592773438e+01,7.06009216308593750e+01,5.53997985839843750e+02,1.27363731384277344e+02,7.20625122070312500e+02,9.82144165039062500e+01,7.74284591674804688e+01,2.29754867553710938e+02,8.15178222656250000e+01,2.16842098236083984e+01,5.37787170410156250e+01,6.77616577148437500e+01,4.38819999694824219e+01,5.06892318725585938e+01],"tree_param":{"num_deleted":"0","num_feature":"21","num_nodes":"51","size_leaf_vector":"0"}}]},"name":"gbtree"},"learner_model_param":{"base_score":"0.500000","num_class":"0","num_feature":"21"},"objective":{"lambda_rank_param":{"fix_list_weight":"0","num_pairsample":"1"},"name":"rank:pairwise"}},"version":[1,1,1]}